{"learner":{"attributes":{"scikit_learn":"{\"_estimator_type\": \"regressor\"}"},"feature_names":["temperature_2m_mean","precipitation_sum","wind_speed_10m_max","wind_direction_10m_dominant"],"feature_types":["float","float","float","float"],"gradient_booster":{"model":{"gbtree_model_param":{"num_parallel_tree":"1","num_trees":"100"},"iteration_indptr":[0,1,2,3,4,5,6,7,8,9,10,11,12,13,14,15,16,17,18,19,20,21,22,23,24,25,26,27,28,29,30,31,32,33,34,35,36,37,38,39,40,41,42,43,44,45,46,47,48,49,50,51,52,53,54,55,56,57,58,59,60,61,62,63,64,65,66,67,68,69,70,71,72,73,74,75,76,77,78,79,80,81,82,83,84,85,86,87,88,89,90,91,92,93,94,95,96,97,98,99,100],"tree_info":[0,0,0,0,0,0,0,0,0,0,0,0,0,0,0,0,0,0,0,0,0,0,0,0,0,0,0,0,0,0,0,0,0,0,0,0,0,0,0,0,0,0,0,0,0,0,0,0,0,0,0,0,0,0,0,0,0,0,0,0,0,0,0,0,0,0,0,0,0,0,0,0,0,0,0,0,0,0,0,0,0,0,0,0,0,0,0,0,0,0,0,0,0,0,0,0,0,0,0,0],"trees":[{"base_weights":[9.8040566E-8,9.678972E-1,-8.6576307E-1,-1.9162759E-1,1.4993428E0,-3.0563524E-1,-1.1442355E0,1.5480102E0,-2.860752E-1,2.295682E0,9.3817264E-1,2.1367316E-1,-5.993473E-1,-1.8365626E-1,-1.3419079E0,2.5757473E0,-3.4542024E-1,-6.363853E-1,7.328715E-2,3.1156824E0,1.4454321E0,8.723198E-1,1.3749518E0,6.496856E-1,-3.6926603E-1,-2.661152E-1,-7.241808E-1,-4.0308622E-1,1.9335251E0,-9.6511966E-1,-1.4520544E0,-4.778016E-2,8.8125974E-1,-1.6689813E-1,-9.7855717E-1,-3.3691052E-1,8.8061535E-1,1.4944752E0,4.9049053E0,4.253051E0,8.409836E-1,1.3998114E0,2.9338384E-1,1.0263081E0,-2.9685578E-1,2.5910995E0,-6.5607095E-1,-5.7767797E-1,2.5911727E0,-1.4028239E-1,-8.1396055E-1,8.553681E-1,-6.5966576E-1,3.2786644E-1,2.7110994E0,-9.9757767E-1,1.4129315E-1,-1.4871273E0,-5.7663196E-1,1.7360157E-1,-2.3046547E-1,-3.4457007E-1,-1.6413228E-1,-2.3079459E-2,-2.4989788E-1,4.6886778E-1,2.2081954E-2,-2.9286528E-1,5.602063E-1,2.2412014E0,5.0389886E-1,2.3588476E-1,1.916309E0,1.0166202E-1,8.5770804E-1,7.2614604E-1,1.3528423E-1,-3.4065172E-2,3.0172524E-1,1.6213521E-1,6.906725E-1,-1.615896E-1,3.0329317E-1,2.2971988E-1,8.832932E-1,1.2038477E-1,-2.6775545E-1,-4.19896E-2,-2.312519E-1,1.1662933E0,1.2929316E-1,-1.18596934E-1,9.509118E-2,-2.5578788E-1,-3.8623095E-2,3.759031E-1,-1.6542023E-1,-2.3647971E-1,5.170798E-1,1.5471987E-1,9.812932E-1,-3.090102E-1,1.2829313E-1,-2.9819378E-1,-4.6306685E-1,-2.970517E-1,-5.7275806E-2],"categories":[],"categories_nodes":[],"categories_segments":[],"categories_sizes":[],"default_left":[0,0,0,0,0,0,0,0,0,0,0,0,0,0,0,0,0,0,0,0,0,0,0,0,0,0,0,0,0,0,0,0,0,0,0,0,0,0,0,0,0,0,0,0,0,0,0,0,0,0,0,0,0,0,0,0,0,0,0,0,0,0,0,0,0,0,0,0,0,0,0,0,0,0,0,0,0,0,0,0,0,0,0,0,0,0,0,0,0,0,0,0,0,0,0,0,0,0,0,0,0,0,0,0,0,0,0],"id":0,"left_children":[1,3,5,7,9,11,13,15,17,19,21,23,25,27,29,31,-1,33,35,37,39,41,-1,43,45,47,49,51,53,55,57,-1,-1,59,61,63,65,67,69,71,73,75,77,79,81,83,85,87,89,91,93,95,97,-1,99,101,-1,103,105,-1,-1,-1,-1,-1,-1,-1,-1,-1,-1,-1,-1,-1,-1,-1,-1,-1,-1,-1,-1,-1,-1,-1,-1,-1,-1,-1,-1,-1,-1,-1,-1,-1,-1,-1,-1,-1,-1,-1,-1,-1,-1,-1,-1,-1,-1,-1,-1],"loss_changes":[1.2938252E3,4.4951483E2,1.2677411E2,3.8232914E1,2.2128711E2,4.161544E1,1.0304822E2,3.6257133E1,2.761617E1,1.3912085E2,6.681189E1,2.540261E1,7.045429E0,4.444924E1,1.7315918E1,9.373245E0,0E0,1.7668312E1,3.6393578E1,2.943426E2,1.7122052E2,8.845601E1,0E0,2.0624521E1,3.820898E1,4.5117867E1,6.49102E0,2.8333109E1,2.9199905E0,5.364189E0,9.796631E0,0E0,0E0,2.1964203E1,4.0660515E0,9.3508E0,2.02573E1,5.3414017E1,3.9293726E2,1.2818326E2,8.617325E1,1.4611774E2,4.0698326E1,2.4172535E1,5.9199934E0,3.2440376E-1,1.035848E1,3.696826E0,1.2327671E1,2.224432E0,2.778122E0,9.081771E0,2.3425768E1,0E0,3.229597E0,5.204994E0,0E0,7.732361E0,2.2035728E0,0E0,0E0,0E0,0E0,0E0,0E0,0E0,0E0,0E0,0E0,0E0,0E0,0E0,0E0,0E0,0E0,0E0,0E0,0E0,0E0,0E0,0E0,0E0,0E0,0E0,0E0,0E0,0E0,0E0,0E0,0E0,0E0,0E0,0E0,0E0,0E0,0E0,0E0,0E0,0E0,0E0,0E0,0E0,0E0,0E0,0E0,0E0,0E0],"parents":[2147483647,0,0,1,1,2,2,3,3,4,4,5,5,6,6,7,7,8,8,9,9,10,10,11,11,12,12,13,13,14,14,15,15,17,17,18,18,19,19,20,20,21,21,23,23,24,24,25,25,26,26,27,27,28,28,29,29,30,30,33,33,34,34,35,35,36,36,37,37,38,38,39,39,40,40,41,41,42,42,43,43,44,44,45,45,46,46,47,47,48,48,49,49,50,50,51,51,52,52,54,54,55,55,57,57,58,58],"right_children":[2,4,6,8,10,12,14,16,18,20,22,24,26,28,30,32,-1,34,36,38,40,42,-1,44,46,48,50,52,54,56,58,-1,-1,60,62,64,66,68,70,72,74,76,78,80,82,84,86,88,90,92,94,96,98,-1,100,102,-1,104,106,-1,-1,-1,-1,-1,-1,-1,-1,-1,-1,-1,-1,-1,-1,-1,-1,-1,-1,-1,-1,-1,-1,-1,-1,-1,-1,-1,-1,-1,-1,-1,-1,-1,-1,-1,-1,-1,-1,-1,-1,-1,-1,-1,-1,-1,-1,-1,-1],"split_conditions":[2.181292E2,8.789841E1,2.5364236E2,9.449572E0,1.639867E2,1.6203999E1,1.3830749E1,2.4060833E0,4.3264347E1,9.44775E0,2.2774834E1,5E-1,2.983167E0,1.8720667E1,1.5986595E1,-5.231416E0,-3.4542024E-1,1.4706668E0,1.2608169E1,1.3640907E2,1.07251854E2,9.81025E0,1.3749518E0,2.4376917E2,1.1090103E1,2.6935835E0,2.23822E2,9.585739E0,9.299999E0,1.0999999E1,1.6920666E1,-4.778016E-2,8.8125974E-1,1.4658676E1,1.4476918E1,5.5019164E0,1.7072504E1,9.283539E1,1.5000001E0,1.4118243E1,2.0549833E1,1.7654686E1,9E-1,1.5349684E1,2.5208739E2,1.2852501E0,3.7435834E0,1E-1,2.8206666E0,2.2248122E2,2.5208739E2,5.6664996E0,1.3684735E1,3.2786644E-1,1.9412334E1,3.576889E2,1.4129315E-1,2.5987167E2,1.8089775E1,1.7360157E-1,-2.3046547E-1,-3.4457007E-1,-1.6413228E-1,-2.3079459E-2,-2.4989788E-1,4.6886778E-1,2.2081954E-2,-2.9286528E-1,5.602063E-1,2.2412014E0,5.0389886E-1,2.3588476E-1,1.916309E0,1.0166202E-1,8.5770804E-1,7.2614604E-1,1.3528423E-1,-3.4065172E-2,3.0172524E-1,1.6213521E-1,6.906725E-1,-1.615896E-1,3.0329317E-1,2.2971988E-1,8.832932E-1,1.2038477E-1,-2.6775545E-1,-4.19896E-2,-2.312519E-1,1.1662933E0,1.2929316E-1,-1.18596934E-1,9.509118E-2,-2.5578788E-1,-3.8623095E-2,3.759031E-1,-1.6542023E-1,-2.3647971E-1,5.170798E-1,1.5471987E-1,9.812932E-1,-3.090102E-1,1.2829313E-1,-2.9819378E-1,-4.6306685E-1,-2.970517E-1,-5.7275806E-2],"split_indices":[3,3,3,2,3,2,2,0,3,0,0,1,0,0,2,0,0,0,0,3,3,0,0,3,2,0,3,2,1,1,0,0,0,2,0,0,2,3,1,2,0,2,1,2,3,0,0,1,0,3,3,0,2,0,0,3,0,3,2,0,0,0,0,0,0,0,0,0,0,0,0,0,0,0,0,0,0,0,0,0,0,0,0,0,0,0,0,0,0,0,0,0,0,0,0,0,0,0,0,0,0,0,0,0,0,0,0],"split_type":[0,0,0,0,0,0,0,0,0,0,0,0,0,0,0,0,0,0,0,0,0,0,0,0,0,0,0,0,0,0,0,0,0,0,0,0,0,0,0,0,0,0,0,0,0,0,0,0,0,0,0,0,0,0,0,0,0,0,0,0,0,0,0,0,0,0,0,0,0,0,0,0,0,0,0,0,0,0,0,0,0,0,0,0,0,0,0,0,0,0,0,0,0,0,0,0,0,0,0,0,0,0,0,0,0,0,0],"sum_hessian":[1.542E3,7.28E2,8.14E2,2.29E2,4.99E2,2.71E2,5.43E2,1.1E1,2.18E2,2.05E2,2.94E2,9.8E1,1.73E2,9.3E1,4.5E2,8E0,3E0,1.1E2,1.08E2,1.03E2,1.02E2,2.9E2,4E0,5.6E1,4.2E1,4.8E1,1.25E2,8.5E1,8E0,1.04E2,3.46E2,1E0,7E0,4.7E1,6.3E1,7.2E1,3.6E1,5.5E1,4.8E1,1.7E1,8.5E1,1.51E2,1.39E2,4E1,1.6E1,3E0,3.9E1,4.4E1,4E0,1.7E1,1.08E2,1.4E1,7.1E1,5E0,3E0,1.02E2,2E0,3.32E2,1.4E1,2.1E1,2.6E1,4.4E1,1.9E1,4.8E1,2.4E1,1.9E1,1.7E1,7E0,4.8E1,2.6E1,2.2E1,7E0,1E1,6.9E1,1.6E1,7.2E1,7.9E1,8.9E1,5E1,3E1,1E1,1.4E1,2E0,1E0,2E0,7E0,3.2E1,1.4E1,3E1,2E0,2E0,1.1E1,6E0,1.02E2,6E0,1.1E1,3E0,6.8E1,3E0,1E0,2E0,1E2,2E0,3.6E1,2.96E2,6E0,8E0],"tree_param":{"num_deleted":"0","num_feature":"4","num_nodes":"107","size_leaf_vector":"1"}},{"base_weights":[7.928179E-3,5.834968E-1,-7.195617E-1,-2.5446326E-1,8.0658823E-1,-2.1155308E-1,-9.068349E-1,-3.4016166E-2,-5.0014824E-1,1.2451421E0,9.167935E-2,-3.8150886E-1,1.0021142E0,-6.025898E-1,-1.032537E0,-1.5718406E-1,1.3558747E0,-9.3536764E-1,-2.3783602E-1,-1.0275435E0,1.3548408E0,4.503608E-2,3.0655897E0,1.1246118E-1,-6.780249E-1,1.5910525E0,-9.0795964E-2,-6.614023E-1,1.2117276E0,-1.0507375E0,1.1994191E-2,-4.6115288E-1,4.6612534E-1,-9.415929E-2,2.8294485E0,-1.0493511E0,1.5487677E-1,-5.345487E-1,4.0177056E-1,3.1909015E-2,-1.1594423E0,2.0274673E0,7.631342E-1,3.769727E-1,-3.2536077E-1,-1.0600412E-2,1.2333028E0,6.8098694E-1,-1.5458478E-1,-7.146688E-1,2.3083454E-1,1.2073996E0,1.129747E0,-4.063408E-1,2.027222E-1,-6.900216E-1,1.1184511E-1,-2.7706814E-1,8.8293195E-1,-6.2414426E-1,-1.0984178E0,2.594337E-1,-2.3844385E-1,-2.3032324E-2,-2.9268977E-1,8.255493E-2,6.278634E-1,-1.7035237E-1,1.2327273E-1,1.3773898E0,2.1351959E-1,-1.3756551E-1,-3.2940364E-1,7.629247E-2,-2.5960612E-1,4.998196E-1,4.1881397E-2,-3.8657013E-1,-1.1560917E-1,8.080654E-1,2.7507642E-1,1.5334696E-1,7.7545494E-1,3.7189955E-1,-6.723318E-2,5.847914E-1,-1.1385483E-1,2.9830256E-1,8.045936E-2,3.9804122E-1,-7.7762626E-2,-1.2654832E-1,-2.8689435E-1,1.9915283E-1,7.8503454E-1,-6.5129474E-2,-1.4819945E-1,6.054211E-3,-2.1666376E-1,3.8551334E-1,-1.13941096E-1,-2.6111883E-1,7.1604915E-2,-3.3551046E-1,-1.3688277E-1,-3.9222408E-2,1.2992175E-1,-1.252517E-1,4.4811238E-2],"categories":[],"categories_nodes":[],"categories_segments":[],"categories_sizes":[],"default_left":[0,0,0,0,0,0,0,0,0,0,0,0,0,0,0,0,0,0,0,0,0,0,0,0,0,0,0,0,0,0,0,0,0,0,0,0,0,0,0,0,0,0,0,0,0,0,0,0,0,0,0,0,0,0,0,0,0,0,0,0,0,0,0,0,0,0,0,0,0,0,0,0,0,0,0,0,0,0,0,0,0,0,0,0,0,0,0,0,0,0,0,0,0,0,0,0,0,0,0,0,0,0,0,0,0,0,0,0,0],"id":1,"left_children":[1,3,5,7,9,11,13,15,17,19,21,23,25,27,29,31,33,35,37,39,41,43,45,47,49,51,53,55,57,59,61,63,65,67,69,71,-1,73,75,-1,77,79,81,83,85,-1,-1,87,89,91,-1,-1,93,95,-1,97,99,-1,-1,101,103,105,107,-1,-1,-1,-1,-1,-1,-1,-1,-1,-1,-1,-1,-1,-1,-1,-1,-1,-1,-1,-1,-1,-1,-1,-1,-1,-1,-1,-1,-1,-1,-1,-1,-1,-1,-1,-1,-1,-1,-1,-1,-1,-1,-1,-1,-1,-1],"loss_changes":[6.4650543E2,1.61349E2,6.469119E1,9.840203E0,2.1339703E2,3.854222E1,1.84234E1,1.6818544E1,9.595585E0,1.0660132E2,3.592729E1,2.3950865E1,1.4948568E1,1.6593704E1,6.685486E0,1.7266949E1,1.7360275E1,5.836485E0,1.0652634E1,3.11454E0,1.588457E2,3.1720364E1,1.3112331E1,9.518266E0,5.960102E0,1.2292732E1,2.451471E0,3.2638626E0,2.1203098E1,6.3317566E0,4.9563822E-1,1.1988146E1,8.74255E0,1.4295402E0,1.1656628E1,3.5897446E-1,0E0,1.0136464E1,5.7335997E0,0E0,1.3025799E0,1.3659705E2,9.782955E1,7.080062E1,1.5768384E1,0E0,0E0,2.3203096E0,7.0084343E0,6.6729736E0,0E0,0E0,7.96229E0,8.8733435E-3,0E0,3.1924057E0,3.9488764E0,0E0,0E0,8.069241E0,3.4482727E0,3.2761857E-1,3.4013432E-1,0E0,0E0,0E0,0E0,0E0,0E0,0E0,0E0,0E0,0E0,0E0,0E0,0E0,0E0,0E0,0E0,0E0,0E0,0E0,0E0,0E0,0E0,0E0,0E0,0E0,0E0,0E0,0E0,0E0,0E0,0E0,0E0,0E0,0E0,0E0,0E0,0E0,0E0,0E0,0E0,0E0,0E0,0E0,0E0,0E0,0E0],"parents":[2147483647,0,0,1,1,2,2,3,3,4,4,5,5,6,6,7,7,8,8,9,9,10,10,11,11,12,12,13,13,14,14,15,15,16,16,17,17,18,18,19,19,20,20,21,21,22,22,23,23,24,24,25,25,26,26,27,27,28,28,29,29,30,30,31,31,32,32,33,33,34,34,35,35,37,37,38,38,40,40,41,41,42,42,43,43,44,44,47,47,48,48,49,49,52,52,53,53,55,55,56,56,59,59,60,60,61,61,62,62],"right_children":[2,4,6,8,10,12,14,16,18,20,22,24,26,28,30,32,34,36,38,40,42,44,46,48,50,52,54,56,58,60,62,64,66,68,70,72,-1,74,76,-1,78,80,82,84,86,-1,-1,88,90,92,-1,-1,94,96,-1,98,100,-1,-1,102,104,106,108,-1,-1,-1,-1,-1,-1,-1,-1,-1,-1,-1,-1,-1,-1,-1,-1,-1,-1,-1,-1,-1,-1,-1,-1,-1,-1,-1,-1,-1,-1,-1,-1,-1,-1,-1,-1,-1,-1,-1,-1,-1,-1,-1,-1,-1,-1],"split_conditions":[2.3725418E2,6.840926E1,1.4917212E1,1.6055355E1,1.9885135E2,1.8020666E1,2.5987167E2,1.5778516E1,1E-1,-2.1335E0,2.2774834E1,9.4775003E-1,1.2984975E1,2.5926828E2,1.9224833E1,6E-1,9.212335E0,1.7641499E1,9.020666E0,7.3901115E1,9.658168E0,8.826917E0,1E-1,1.1770403E1,1.0999999E1,2.4290553E2,4.1E0,5.799999E0,2.7169865E1,-3.36475E0,1.9376562E1,5.6664996E0,7.8E0,4.099833E0,1.50998335E1,-4.191833E0,1.5487677E-1,-2.18975E0,2E-1,3.1909015E-2,1.7175021E2,1.864369E1,2.1707731E1,3E-1,8.891344E0,-1.0600412E-2,1.2333028E0,-4.0522504E0,2.3908356E2,9.81025E0,2.3083454E-1,1.2073996E0,1.0200002E1,1.9412334E1,2.027222E-1,-6.439165E-1,6.7999997E0,-2.7706814E-1,8.8293195E-1,3.328001E2,1.03E1,1E-1,2.0549833E1,-2.3032324E-2,-2.9268977E-1,8.255493E-2,6.278634E-1,-1.7035237E-1,1.2327273E-1,1.3773898E0,2.1351959E-1,-1.3756551E-1,-3.2940364E-1,7.629247E-2,-2.5960612E-1,4.998196E-1,4.1881397E-2,-3.8657013E-1,-1.1560917E-1,8.080654E-1,2.7507642E-1,1.5334696E-1,7.7545494E-1,3.7189955E-1,-6.723318E-2,5.847914E-1,-1.1385483E-1,2.9830256E-1,8.045936E-2,3.9804122E-1,-7.7762626E-2,-1.2654832E-1,-2.8689435E-1,1.9915283E-1,7.8503454E-1,-6.5129474E-2,-1.4819945E-1,6.054211E-3,-2.1666376E-1,3.8551334E-1,-1.13941096E-1,-2.6111883E-1,7.1604915E-2,-3.3551046E-1,-1.3688277E-1,-3.9222408E-2,1.2992175E-1,-1.252517E-1,4.4811238E-2],"split_indices":[3,3,2,2,3,0,3,2,1,0,0,0,2,3,0,1,0,0,0,3,0,0,1,2,1,3,1,1,2,0,2,0,1,0,0,0,0,0,1,0,3,2,2,1,2,0,0,0,3,0,0,0,1,0,0,0,1,0,0,3,1,1,0,0,0,0,0,0,0,0,0,0,0,0,0,0,0,0,0,0,0,0,0,0,0,0,0,0,0,0,0,0,0,0,0,0,0,0,0,0,0,0,0,0,0,0,0,0,0],"split_type":[0,0,0,0,0,0,0,0,0,0,0,0,0,0,0,0,0,0,0,0,0,0,0,0,0,0,0,0,0,0,0,0,0,0,0,0,0,0,0,0,0,0,0,0,0,0,0,0,0,0,0,0,0,0,0,0,0,0,0,0,0,0,0,0,0,0,0,0,0,0,0,0,0,0,0,0,0,0,0,0,0,0,0,0,0,0,0,0,0,0,0,0,0,0,0,0,0,0,0,0,0,0,0,0,0,0,0,0,0],"sum_hessian":[1.542E3,8.61E2,6.81E2,1.81E2,6.8E2,1.84E2,4.97E2,9.6E1,8.5E1,4.21E2,2.59E2,1.62E2,2.2E1,1.47E2,3.5E2,8.9E1,7E0,3.1E1,5.4E1,1.9E1,4.02E2,2.56E2,3E0,6.1E1,1.01E2,1.4E1,8E0,1.43E2,4E0,3.44E2,6E0,6E1,2.9E1,4E0,3E0,2.9E1,2E0,3.7E1,1.7E1,2E0,1.7E1,1.87E2,2.15E2,1.35E2,1.21E2,1E0,2E0,1.9E1,4.2E1,9.9E1,2E0,1E0,1.3E1,6E0,2E0,1.38E2,5E0,2E0,2E0,3.6E1,3.08E2,3E0,3E0,3.5E1,2.5E1,2.7E1,2E0,2E0,2E0,1E0,2E0,3E0,2.6E1,1.1E1,2.6E1,2E0,1.5E1,1.4E1,3E0,1.16E2,7.1E1,1.9E2,2.5E1,5.5E1,8E1,2E0,1.19E2,1E1,9E0,2E0,4E1,4.6E1,5.3E1,1.1E1,2E0,3E0,3E0,6E0,1.32E2,1E0,4E0,2.8E1,8E0,2.98E2,1E1,1E0,2E0,2E0,1E0],"tree_param":{"num_deleted":"0","num_feature":"4","num_nodes":"109","size_leaf_vector":"1"}},{"base_weights":[1.0888296E-2,4.9131322E-1,-4.2560515E-1,-1.1854659E-1,7.6755124E-1,5.615922E-1,-4.763354E-1,-1.4813253E-1,2.1695004E0,1.2751429E0,4.5048946E-1,3.0967107E-1,2.7514646E0,-1.8937185E-1,-6.1722565E-1,9.9415123E-1,-2.1061766E-1,9.613876E-1,1.4887655E-2,8.8077307E-1,2.3933127E0,5.8177835E-1,-4.6010143E-1,7.1506315E-1,-4.0740612E-1,2.2910075E-1,9.47852E-1,1.562302E-1,-3.482541E-1,-6.64602E-1,9.633107E-2,1.6962211E0,-2.5021315E-1,-1.20724164E-1,-6.746146E-1,-5.518172E-1,1.6405766E0,3.741988E0,7.7633137E-1,5.370657E-1,1.3325392E0,1.5677851E0,-7.945934E-1,7.8388715E-1,-1.3018338E-1,-2.8229603E-1,2.6060107E-1,5.203069E-1,-1.7761213E-1,-4.0487126E-2,-4.7450918E-1,-2.7880463E-1,-7.0840627E-1,6.704902E-1,-1.824551E-1,-3.715825E-2,5.817642E-1,-5.245666E-2,2.4997014E-1,-2.8111285E-1,2.254804E-2,-3.4678036E-1,1.3270837E-1,-8.8111214E-2,5.771311E-1,1.9261333E0,2.3887418E-1,1.20229624E-1,1.4121523E0,2.813045E-1,5.8523644E-2,-4.5557514E-2,7.3967147E-1,-2.9048714E-1,7.666659E-1,1.5140882E-1,3.1277338E-1,-7.602218E-2,1.1655111E-1,2.285755E-1,-1.5335315E-1,-1.9621779E-1,3.868541E-2,-1.4970767E-1,2.5600943E-1,-2.460313E-1,-1.066465E-1,-1.3866953E-2,-2.2237457E-1,-1.753993E-1,-2.305405E-1,4.05013E-1,7.407073E-2,-8.7778725E-2,1.2415858E-1],"categories":[],"categories_nodes":[],"categories_segments":[],"categories_sizes":[],"default_left":[0,0,0,0,0,0,0,0,0,0,0,0,0,0,0,0,0,0,0,0,0,0,0,0,0,0,0,0,0,0,0,0,0,0,0,0,0,0,0,0,0,0,0,0,0,0,0,0,0,0,0,0,0,0,0,0,0,0,0,0,0,0,0,0,0,0,0,0,0,0,0,0,0,0,0,0,0,0,0,0,0,0,0,0,0,0,0,0,0,0,0,0,0,0,0],"id":2,"left_children":[1,3,5,7,9,11,13,15,17,19,21,23,25,27,29,31,33,-1,-1,35,37,39,41,43,45,-1,-1,47,49,51,53,55,-1,57,59,61,63,65,67,69,-1,71,73,75,-1,-1,77,79,81,83,85,87,89,91,93,-1,-1,-1,-1,-1,-1,-1,-1,-1,-1,-1,-1,-1,-1,-1,-1,-1,-1,-1,-1,-1,-1,-1,-1,-1,-1,-1,-1,-1,-1,-1,-1,-1,-1,-1,-1,-1,-1,-1,-1],"loss_changes":[3.237798E2,1.23913864E2,4.0782852E1,1.5890999E1,8.086014E1,2.1214954E1,3.101448E1,1.6483055E1,6.423972E0,8.3440704E1,3.768696E1,1.1047125E1,8.316002E-1,1.4056465E1,1.7507767E1,1.681697E1,8.969693E0,0E0,0E0,1.5873593E2,1.06134094E2,4.4904556E1,2.8378218E1,2.2380667E0,5.235321E0,0E0,0E0,9.937492E0,6.7807903E0,7.9819183E0,5.4045663E0,4.2205963E0,0E0,9.595638E0,6.957098E0,3.114196E1,5.2603714E1,2.079188E2,3.3544506E1,3.708255E1,0E0,9.637652E0,2.2841381E1,1.1349707E0,0E0,0E0,5.586506E-1,1.0108992E1,6.364979E0,2.1738853E1,4.808956E0,5.4510875E0,2.7762756E0,2.833025E0,1.6317055E0,0E0,0E0,0E0,0E0,0E0,0E0,0E0,0E0,0E0,0E0,0E0,0E0,0E0,0E0,0E0,0E0,0E0,0E0,0E0,0E0,0E0,0E0,0E0,0E0,0E0,0E0,0E0,0E0,0E0,0E0,0E0,0E0,0E0,0E0,0E0,0E0,0E0,0E0,0E0,0E0],"parents":[2147483647,0,0,1,1,2,2,3,3,4,4,5,5,6,6,7,7,8,8,9,9,10,10,11,11,12,12,13,13,14,14,15,15,16,16,19,19,20,20,21,21,22,22,23,23,24,24,27,27,28,28,29,29,30,30,31,31,33,33,34,34,35,35,36,36,37,37,38,38,39,39,41,41,42,42,43,43,46,46,47,47,48,48,49,49,50,50,51,51,52,52,53,53,54,54],"right_children":[2,4,6,8,10,12,14,16,18,20,22,24,26,28,30,32,34,-1,-1,36,38,40,42,44,46,-1,-1,48,50,52,54,56,-1,58,60,62,64,66,68,70,-1,72,74,76,-1,-1,78,80,82,84,86,88,90,92,94,-1,-1,-1,-1,-1,-1,-1,-1,-1,-1,-1,-1,-1,-1,-1,-1,-1,-1,-1,-1,-1,-1,-1,-1,-1,-1,-1,-1,-1,-1,-1,-1,-1,-1,-1,-1,-1,-1,-1,-1],"split_conditions":[2.1917905E2,8.789841E1,1.1090103E1,2.0881086E1,1.618219E2,9.299999E0,2.5364236E2,9.449572E0,2.1389418E1,1.4650656E2,2.4195107E1,8.301917E0,1.7295666E1,1E-1,1.7178999E1,2.4060833E0,2.1986542E1,9.613876E-1,1.4887655E-2,2E-1,9.44775E0,2.3936617E1,3E-1,3.372875E2,1.4920667E1,2.2910075E-1,9.47852E-1,1.692383E1,4.345667E0,-4.0522504E0,1.3779114E1,-5.231416E0,-2.5021315E-1,2.109305E1,1.2941501E1,1.3449833E1,6.3733345E-1,4E-1,2.5683926E1,9.556084E0,1.3325392E0,1.8149202E2,3.5728977E1,2.8769757E2,-1.3018338E-1,-2.8229603E-1,1E-1,1.8993586E1,1.9881649E1,2.3602502E0,6.7915006E0,1.6981165E1,2.764325E2,2.6658258E2,1.0000001E0,-3.715825E-2,5.817642E-1,-5.245666E-2,2.4997014E-1,-2.8111285E-1,2.254804E-2,-3.4678036E-1,1.3270837E-1,-8.8111214E-2,5.771311E-1,1.9261333E0,2.3887418E-1,1.20229624E-1,1.4121523E0,2.813045E-1,5.8523644E-2,-4.5557514E-2,7.3967147E-1,-2.9048714E-1,7.666659E-1,1.5140882E-1,3.1277338E-1,-7.602218E-2,1.1655111E-1,2.285755E-1,-1.5335315E-1,-1.9621779E-1,3.868541E-2,-1.4970767E-1,2.5600943E-1,-2.460313E-1,-1.066465E-1,-1.3866953E-2,-2.2237457E-1,-1.753993E-1,-2.305405E-1,4.05013E-1,7.407073E-2,-8.7778725E-2,1.2415858E-1],"split_indices":[3,3,2,0,3,1,3,2,0,3,2,0,0,1,0,0,2,0,0,1,0,2,1,3,0,0,0,2,0,0,2,0,0,2,0,0,0,1,2,0,0,3,2,3,0,0,1,0,2,0,0,2,3,3,1,0,0,0,0,0,0,0,0,0,0,0,0,0,0,0,0,0,0,0,0,0,0,0,0,0,0,0,0,0,0,0,0,0,0,0,0,0,0,0,0],"split_type":[0,0,0,0,0,0,0,0,0,0,0,0,0,0,0,0,0,0,0,0,0,0,0,0,0,0,0,0,0,0,0,0,0,0,0,0,0,0,0,0,0,0,0,0,0,0,0,0,0,0,0,0,0,0,0,0,0,0,0,0,0,0,0,0,0,0,0,0,0,0,0,0,0,0,0,0,0,0,0,0,0,0,0,0,0,0,0,0,0,0,0,0,0,0,0],"sum_hessian":[1.542E3,7.34E2,8.08E2,2.29E2,5.05E2,3.9E1,7.69E2,2.27E2,2E0,1.93E2,3.12E2,3.6E1,3E0,2.54E2,5.15E2,1.1E1,2.16E2,1E0,1E0,1.44E2,4.9E1,2.73E2,3.9E1,2.3E1,1.3E1,1E0,2E0,8E1,1.74E2,4.83E2,3.2E1,8E0,3E0,1.82E2,3.4E1,5E1,9.4E1,2.6E1,2.3E1,2.71E2,2E0,5E0,3.4E1,2.2E1,1E0,7E0,6E0,3.8E1,4.2E1,5.1E1,1.23E2,5E1,4.33E2,1E1,2.2E1,1E0,7E0,1.73E2,9E0,2.5E1,9E0,3.1E1,1.9E1,1.2E1,8.2E1,1.3E1,1.3E1,2.2E1,1E0,1.24E2,1.47E2,2E0,3E0,3.3E1,1E0,1.2E1,1E1,1E0,5E0,3.1E1,7E0,1.6E1,2.6E1,3.4E1,1.7E1,3E1,9.3E1,3.4E1,1.6E1,1.45E2,2.88E2,3E0,7E0,1.9E1,3E0],"tree_param":{"num_deleted":"0","num_feature":"4","num_nodes":"95","size_leaf_vector":"1"}},{"base_weights":[1.334986E-2,4.0838325E-1,-2.7464575E-1,-7.772343E-2,6.723552E-1,-3.375357E-1,3.2714984E-1,-1.0266936E-1,1.8440756E0,6.2691563E-1,3.2767086E0,-9.407583E-2,-4.1418147E-1,1.0937518E0,-8.937173E-2,7.2043854E-1,-1.4771372E-1,8.171795E-1,1.265452E-2,9.605563E-1,2.6525742E-1,2.5792888E-1,1.0608718E0,1.508843E-1,-4.406973E-1,1.135208E-1,-4.4815812E-1,1.7797312E0,6.0293573E-1,-2.0544481E-1,4.6510893E-1,1.2478665E0,-1.9391519E-1,-2.65244E-1,-1.07866004E-1,5.3175026E-1,1.9706621E0,2.509778E0,8.379717E-2,4.0947324E-1,-5.9543353E-1,-4.932694E-1,5.647608E-1,3.4661508E-1,-4.9013013E-1,-3.5538942E-1,-5.42942E-1,1.9033313E-1,2.0785775E0,3.4984207E-1,1.4645765E0,8.833422E-2,-3.3275515E-1,6.381069E-3,3.4548163E-1,1.9648008E-1,6.6462636E-1,4.22486E-2,-7.162043E-2,-2.8004032E-1,2.0933323E-1,-1.5119922E-1,7.481341E-1,5.8639377E-2,1.3531108E0,-1.0555782E-1,2.1741444E-1,-8.303457E-2,1.8648691E-1,-3.6162402E-2,-2.4805577E-1,-2.9790542E-1,-1.0879968E-1,1.4430486E-1,-6.7907505E-2,-1.9183564E-1,3.636377E-2,-2.4805836E-2,-1.2484499E-1,-1.1762507E-1,-2.066846E-1,-1.09085694E-1,1.947356E-1,9.577622E-1,2.4115363E-1,4.2094007E-1,5.5824127E-2,8.999294E-2,5.2583534E-1,3.6594754E-1,-1.3020307E-1,-1.3056225E-1,9.84058E-2,-4.9905933E-2,5.3255994E-2],"categories":[],"categories_nodes":[],"categories_segments":[],"categories_sizes":[],"default_left":[0,0,0,0,0,0,0,0,0,0,0,0,0,0,0,0,0,0,0,0,0,0,0,0,0,0,0,0,0,0,0,0,0,0,0,0,0,0,0,0,0,0,0,0,0,0,0,0,0,0,0,0,0,0,0,0,0,0,0,0,0,0,0,0,0,0,0,0,0,0,0,0,0,0,0,0,0,0,0,0,0,0,0,0,0,0,0,0,0,0,0,0,0,0,0],"id":3,"left_children":[1,3,5,7,9,11,13,15,17,19,21,23,25,27,29,31,33,-1,-1,35,37,-1,-1,39,41,43,45,47,49,51,53,55,-1,-1,57,59,61,63,65,67,69,71,-1,73,75,77,79,81,83,85,87,89,91,93,-1,-1,-1,-1,-1,-1,-1,-1,-1,-1,-1,-1,-1,-1,-1,-1,-1,-1,-1,-1,-1,-1,-1,-1,-1,-1,-1,-1,-1,-1,-1,-1,-1,-1,-1,-1,-1,-1,-1,-1,-1],"loss_changes":[1.7565599E2,8.358762E1,3.3907707E1,1.1215777E1,4.7885452E1,1.5057114E1,2.7238781E1,8.559831E0,4.641321E0,4.994139E1,1.3505707E0,1.662364E1,1.1077553E1,9.027622E0,3.6997297E0,9.457405E0,6.2725325E0,0E0,0E0,9.251024E1,8.1655235E1,0E0,0E0,2.243761E1,1.0821717E1,5.5167737E0,4.8893814E0,5.304207E0,3.631071E0,1.7872455E0,3.141802E0,3.7123013E0,0E0,0E0,6.7707176E0,3.7871033E1,8.4107315E1,6.856831E1,5.2469128E1,1.2692698E1,3.1973028E0,4.861393E0,0E0,2.2651134E0,1.0816655E0,4.8536224E0,5.9853516E0,9.9846745E-1,1.1633736E1,2.4987242E0,8.1679344E-1,9.394835E0,2.3767867E0,2.3646176E-1,0E0,0E0,0E0,0E0,0E0,0E0,0E0,0E0,0E0,0E0,0E0,0E0,0E0,0E0,0E0,0E0,0E0,0E0,0E0,0E0,0E0,0E0,0E0,0E0,0E0,0E0,0E0,0E0,0E0,0E0,0E0,0E0,0E0,0E0,0E0,0E0,0E0,0E0,0E0,0E0,0E0],"parents":[2147483647,0,0,1,1,2,2,3,3,4,4,5,5,6,6,7,7,8,8,9,9,10,10,11,11,12,12,13,13,14,14,15,15,16,16,19,19,20,20,23,23,24,24,25,25,26,26,27,27,28,28,29,29,30,30,31,31,34,34,35,35,36,36,37,37,38,38,39,39,40,40,41,41,43,43,44,44,45,45,46,46,47,47,48,48,49,49,50,50,51,51,52,52,53,53],"right_children":[2,4,6,8,10,12,14,16,18,20,22,24,26,28,30,32,34,-1,-1,36,38,-1,-1,40,42,44,46,48,50,52,54,56,-1,-1,58,60,62,64,66,68,70,72,-1,74,76,78,80,82,84,86,88,90,92,94,-1,-1,-1,-1,-1,-1,-1,-1,-1,-1,-1,-1,-1,-1,-1,-1,-1,-1,-1,-1,-1,-1,-1,-1,-1,-1,-1,-1,-1,-1,-1,-1,-1,-1,-1,-1,-1,-1,-1,-1,-1],"split_conditions":[2.0619711E2,8.789841E1,1.7178999E1,2.0881086E1,2.2774834E1,2.3908356E2,1.3779114E1,9.449572E0,2.1389418E1,1.0462333E1,1.2984975E1,7.5623336E0,1.191812E1,2.4585947E2,2.0308168E1,2.4060833E0,-5.231416E0,8.171795E-1,1.265452E-2,5.6664996E0,1.07251854E2,2.5792888E-1,1.0608718E0,2.1E0,1.3399999E1,6.8977494E0,1.8532135E1,1.7295666E1,1.0200002E1,2.2248122E2,2E-1,8.557102E0,-1.9391519E-1,-2.65244E-1,1.4706668E0,-1.4501663E0,1.2239716E2,1.5629971E1,8E-1,1.2040001E0,1.7771753E1,2.1136087E2,5.647608E-1,3.3472748E2,1.4920667E1,-3.175167E0,2.764325E2,3.8E0,1.8993586E1,1.7295666E1,1.9412334E1,1.5124284E1,1.4000002E0,1.8204042E1,3.4548163E-1,1.9648008E-1,6.6462636E-1,4.22486E-2,-7.162043E-2,-2.8004032E-1,2.0933323E-1,-1.5119922E-1,7.481341E-1,5.8639377E-2,1.3531108E0,-1.0555782E-1,2.1741444E-1,-8.303457E-2,1.8648691E-1,-3.6162402E-2,-2.4805577E-1,-2.9790542E-1,-1.0879968E-1,1.4430486E-1,-6.7907505E-2,-1.9183564E-1,3.636377E-2,-2.4805836E-2,-1.2484499E-1,-1.1762507E-1,-2.066846E-1,-1.09085694E-1,1.947356E-1,9.577622E-1,2.4115363E-1,4.2094007E-1,5.5824127E-2,8.999294E-2,5.2583534E-1,3.6594754E-1,-1.3020307E-1,-1.3056225E-1,9.84058E-2,-4.9905933E-2,5.3255994E-2],"split_indices":[3,3,0,0,0,3,2,2,0,0,2,0,2,3,0,0,0,0,0,0,3,0,0,1,1,0,2,0,1,3,1,2,0,0,0,0,3,2,1,0,2,3,0,3,0,0,3,1,0,0,0,2,1,2,0,0,0,0,0,0,0,0,0,0,0,0,0,0,0,0,0,0,0,0,0,0,0,0,0,0,0,0,0,0,0,0,0,0,0,0,0,0,0,0,0],"split_type":[0,0,0,0,0,0,0,0,0,0,0,0,0,0,0,0,0,0,0,0,0,0,0,0,0,0,0,0,0,0,0,0,0,0,0,0,0,0,0,0,0,0,0,0,0,0,0,0,0,0,0,0,0,0,0,0,0,0,0,0,0,0,0,0,0,0,0,0,0,0,0,0,0,0,0,0,0,0,0,0,0,0,0,0,0,0,0,0,0,0,0,0,0,0,0],"sum_hessian":[1.542E3,6.5E2,8.92E2,2.29E2,4.21E2,8.08E2,8.4E1,2.27E2,2E0,4.15E2,6E0,1.94E2,6.14E2,2.9E1,5.5E1,1.1E1,2.16E2,1E0,1E0,2.15E2,2E2,1E0,5E0,1.14E2,8E1,3.7E1,5.77E2,1.1E1,1.8E1,4.6E1,9E0,8E0,3E0,1E1,2.06E2,1.52E2,6.3E1,1.4E1,1.86E2,8.5E1,2.9E1,7.9E1,1E0,2.7E1,1E1,2.94E2,2.83E2,2E0,9E0,1.5E1,3E0,1.4E1,3.2E1,6E0,3E0,6E0,2E0,7.1E1,1.35E2,1.5E1,1.37E2,1.1E1,5.2E1,7E0,7E0,1.11E2,7.5E1,2E1,6.5E1,1E1,1.9E1,1.5E1,6.4E1,2.2E1,5E0,8E0,2E0,5.4E1,2.4E2,1.41E2,1.42E2,1E0,1E0,4E0,5E0,1E0,1.4E1,1E0,2E0,4E0,1E1,2.8E1,4E0,3E0,3E0],"tree_param":{"num_deleted":"0","num_feature":"4","num_nodes":"95","size_leaf_vector":"1"}},{"base_weights":[1.383285E-2,3.122729E-1,-1.8697442E-1,-3.8637966E-2,5.441275E-1,-2.321906E-1,2.3410632E-1,1.8397322E-1,-3.0621746E-1,8.5682416E-1,2.6483744E-1,4.9530572E-1,-2.4975838E-1,7.7214956E-1,-6.168164E-2,2.2093762E-2,1.593059E0,-4.6108547E-1,5.209081E-2,6.0184425E-1,4.0075836E0,-2.3030471E-2,1.1231444E0,7.0748687E-1,-2.8273523E-1,-1.231676E-1,-3.2967725E-1,9.986866E-1,8.225628E-2,-5.091078E-1,4.0019788E-2,4.1787305E-1,-2.8353733E-1,1.8996349E-1,3.4321923E0,4.871119E-2,-6.3472354E-1,-5.325962E-1,3.8030124E-1,1.0713218E0,5.7482217E-2,3.0564427E0,1.1346023E0,2.6833715E0,-1.5443175E-1,6.378899E-1,3.2628715E0,7.993059E-1,-1.0046972E-1,-4.3938693E-1,5.1580742E-2,8.5307695E-3,-3.6765763E-1,1.872578E-1,-3.449852E-1,1.7414159E0,6.543648E-1,-2.3446277E-1,3.8252407E-1,-7.3173046E-1,-2.0163393E-1,1.341985E0,-1.3843046E-1,-7.098422E-2,2.6256815E-1,-1.1646986E-1,4.622992E-1,-1.0853099E-1,1.19784914E-1,1.3977634E0,1.9563109E-1,-5.031543E-2,3.0313957E-1,-8.3113365E-2,-2.566635E-1,-2.2114068E-1,1.1847415E-1,5.0198954E-1,6.006893E-3,1.7700166E-1,9.140458E-1,-1.6880569E-1,5.9407234E-1,-2.522197E-1,1.2923362E0,-1.6372341E-1,1.2252501E0,-9.31936E-2,2.0426816E-1,8.820245E-2,7.956538E-1,3.3709115E-1,1.1140685E0,1.21755175E-1,3.5729715E-1,-3.3365127E-2,-1.5351136E-1,5.3158093E-2,-9.94089E-2,-1.2262293E-1,3.7429973E-1,2.8943348E-1,-5.4955203E-2,-1.0618725E-1,5.066348E-2,7.864615E-1,2.5951782E-1,-1.2914073E-1,2.9851958E-1,-1.13010995E-1,-4.22039E-3,4.7742892E-2,1.4351915E-1,-4.1262783E-2,-2.4691786E-1,-8.636571E-3,-1.09464936E-1,1.0597372E0,5.92197E-2,-1.0216441E-1,4.3631177E-2],"categories":[],"categories_nodes":[],"categories_segments":[],"categories_sizes":[],"default_left":[0,0,0,0,0,0,0,0,0,0,0,0,0,0,0,0,0,0,0,0,0,0,0,0,0,0,0,0,0,0,0,0,0,0,0,0,0,0,0,0,0,0,0,0,0,0,0,0,0,0,0,0,0,0,0,0,0,0,0,0,0,0,0,0,0,0,0,0,0,0,0,0,0,0,0,0,0,0,0,0,0,0,0,0,0,0,0,0,0,0,0,0,0,0,0,0,0,0,0,0,0,0,0,0,0,0,0,0,0,0,0,0,0,0,0,0,0,0,0,0,0],"id":4,"left_children":[1,3,5,7,9,11,13,15,17,19,21,23,25,27,29,31,33,35,37,39,41,43,45,47,49,51,53,55,57,59,61,63,65,67,69,71,73,75,77,79,81,-1,83,85,87,89,91,93,-1,95,-1,97,99,101,103,105,107,109,111,113,115,117,119,-1,-1,-1,-1,-1,-1,-1,-1,-1,-1,-1,-1,-1,-1,-1,-1,-1,-1,-1,-1,-1,-1,-1,-1,-1,-1,-1,-1,-1,-1,-1,-1,-1,-1,-1,-1,-1,-1,-1,-1,-1,-1,-1,-1,-1,-1,-1,-1,-1,-1,-1,-1,-1,-1,-1,-1,-1,-1],"loss_changes":[9.252873E1,5.054578E1,1.762796E1,1.48287525E1,3.243564E1,1.0782639E1,1.437083E1,3.098668E1,6.294443E0,1.3898302E2,4.919459E1,3.5017447E0,8.204742E0,4.919016E0,2.7051036E0,1.4996865E1,3.5474724E1,7.024004E0,6.9190598E0,4.185121E1,2.1927669E2,5.37581E1,4.9834255E1,1.7990599E0,4.3167126E-1,1.02102E1,4.0132904E0,4.998186E0,9.455924E-1,6.0541534E-1,1.1570236E1,1.637104E1,1.3969711E1,1.183846E0,1.7429039E1,4.5406594E0,4.422985E0,2.757366E0,1.0680788E1,8.187622E1,9.29316E1,0E0,6.630272E1,3.389223E1,1.900196E1,2.8312689E1,4.504486E0,1.8282919E0,0E0,3.8019538E-2,0E0,1.1925499E1,7.8766317E0,4.497123E0,2.295887E0,3.131321E0,7.0812044E0,1.5144593E-1,3.0947626E-2,2.1239376E-1,1.5879671E-1,1.43458E1,2.5740128E0,0E0,0E0,0E0,0E0,0E0,0E0,0E0,0E0,0E0,0E0,0E0,0E0,0E0,0E0,0E0,0E0,0E0,0E0,0E0,0E0,0E0,0E0,0E0,0E0,0E0,0E0,0E0,0E0,0E0,0E0,0E0,0E0,0E0,0E0,0E0,0E0,0E0,0E0,0E0,0E0,0E0,0E0,0E0,0E0,0E0,0E0,0E0,0E0,0E0,0E0,0E0,0E0,0E0,0E0,0E0,0E0,0E0,0E0],"parents":[2147483647,0,0,1,1,2,2,3,3,4,4,5,5,6,6,7,7,8,8,9,9,10,10,11,11,12,12,13,13,14,14,15,15,16,16,17,17,18,18,19,19,20,20,21,21,22,22,23,23,24,24,25,25,26,26,27,27,28,28,29,29,30,30,31,31,32,32,33,33,34,34,35,35,36,36,37,37,38,38,39,39,40,40,42,42,43,43,44,44,45,45,46,46,47,47,49,49,51,51,52,52,53,53,54,54,55,55,56,56,57,57,58,58,59,59,60,60,61,61,62,62],"right_children":[2,4,6,8,10,12,14,16,18,20,22,24,26,28,30,32,34,36,38,40,42,44,46,48,50,52,54,56,58,60,62,64,66,68,70,72,74,76,78,80,82,-1,84,86,88,90,92,94,-1,96,-1,98,100,102,104,106,108,110,112,114,116,118,120,-1,-1,-1,-1,-1,-1,-1,-1,-1,-1,-1,-1,-1,-1,-1,-1,-1,-1,-1,-1,-1,-1,-1,-1,-1,-1,-1,-1,-1,-1,-1,-1,-1,-1,-1,-1,-1,-1,-1,-1,-1,-1,-1,-1,-1,-1,-1,-1,-1,-1,-1,-1,-1,-1,-1,-1,-1,-1],"split_conditions":[2.0203426E2,9.768213E1,1.7178999E1,1.6055355E1,9.556084E0,9.793058E0,1.3779114E1,1.5646544E1,1.0218584E1,8.079E0,1.9224833E1,8.301917E0,2.5248976E2,2.764325E2,2.154146E2,3.0581665E0,1.3722749E1,-2.18975E0,1E-1,1.6292143E2,8.301917E0,1.04132835E2,4.4E0,3.372875E2,1.3039417E1,1.3000001E0,-8.495997E0,1.8162333E1,1.8514418E1,1.731746E1,2.181292E2,-1.3105835E0,2.0399834E1,1.3733332E-1,1.5176915E1,5.4E0,1.8837322E1,1.7641499E1,3E-1,6.058168E0,1.9382986E2,3.0564427E0,1.7175021E2,1.4118243E1,2.1707731E1,2.2774834E1,1.4471821E1,-1.910583E0,-1.0046972E-1,8.618584E0,5.1580742E-2,8.954E0,1.37E1,1.3281023E1,1.15E1,2.3359337E2,1.8764418E1,1.7868586E1,8.8E0,1.7295666E1,1.8204042E1,1.5124284E1,4E-1,-7.098422E-2,2.6256815E-1,-1.1646986E-1,4.622992E-1,-1.0853099E-1,1.19784914E-1,1.3977634E0,1.9563109E-1,-5.031543E-2,3.0313957E-1,-8.3113365E-2,-2.566635E-1,-2.2114068E-1,1.1847415E-1,5.0198954E-1,6.006893E-3,1.7700166E-1,9.140458E-1,-1.6880569E-1,5.9407234E-1,-2.522197E-1,1.2923362E0,-1.6372341E-1,1.2252501E0,-9.31936E-2,2.0426816E-1,8.820245E-2,7.956538E-1,3.3709115E-1,1.1140685E0,1.21755175E-1,3.5729715E-1,-3.3365127E-2,-1.5351136E-1,5.3158093E-2,-9.94089E-2,-1.2262293E-1,3.7429973E-1,2.8943348E-1,-5.4955203E-2,-1.0618725E-1,5.066348E-2,7.864615E-1,2.5951782E-1,-1.2914073E-1,2.9851958E-1,-1.13010995E-1,-4.22039E-3,4.7742892E-2,1.4351915E-1,-4.1262783E-2,-2.4691786E-1,-8.636571E-3,-1.09464936E-1,1.0597372E0,5.92197E-2,-1.0216441E-1,4.3631177E-2],"split_indices":[3,3,0,2,0,2,2,2,0,0,0,0,3,3,3,0,0,0,1,3,0,3,1,3,0,1,0,0,0,2,3,0,0,0,0,1,2,0,1,0,3,0,3,2,2,0,2,0,0,0,0,0,1,2,1,3,0,0,1,0,2,2,1,0,0,0,0,0,0,0,0,0,0,0,0,0,0,0,0,0,0,0,0,0,0,0,0,0,0,0,0,0,0,0,0,0,0,0,0,0,0,0,0,0,0,0,0,0,0,0,0,0,0,0,0,0,0,0,0,0,0],"split_type":[0,0,0,0,0,0,0,0,0,0,0,0,0,0,0,0,0,0,0,0,0,0,0,0,0,0,0,0,0,0,0,0,0,0,0,0,0,0,0,0,0,0,0,0,0,0,0,0,0,0,0,0,0,0,0,0,0,0,0,0,0,0,0,0,0,0,0,0,0,0,0,0,0,0,0,0,0,0,0,0,0,0,0,0,0,0,0,0,0,0,0,0,0,0,0,0,0,0,0,0,0,0,0,0,0,0,0,0,0,0,0,0,0,0,0,0,0,0,0,0,0],"sum_hessian":[1.542E3,6.2E2,9.22E2,2.47E2,3.73E2,8.33E2,8.9E1,1.35E2,1.12E2,1.75E2,1.98E2,1.9E1,8.14E2,3.1E1,5.8E1,1.22E2,1.3E1,7.8E1,3.4E1,1.63E2,1.2E1,1.49E2,4.9E1,1.5E1,4E0,3.16E2,4.98E2,2.3E1,8E0,1E1,4.8E1,5.3E1,6.9E1,8E0,5E0,2E1,5.8E1,1.2E1,2.2E1,8.7E1,7.6E1,3E0,9E0,6E0,1.43E2,4.1E1,8E0,1.4E1,1E0,3E0,1E0,2.06E2,1.1E2,1.4E1,4.84E2,6E0,1.7E1,4E0,4E0,5E0,5E0,5E0,4.3E1,2.2E1,3.1E1,6.6E1,3E0,2E0,6E0,3E0,2E0,1.7E1,3E0,2.3E1,3.5E1,1E1,2E0,4E0,1.8E1,7.1E1,1.6E1,5.8E1,1.8E1,6E0,3E0,2E0,4E0,1.21E2,2.2E1,3.6E1,5E0,2E0,6E0,8E0,6E0,1E0,2E0,1.38E2,6.8E1,1.08E2,2E0,4E0,1E1,4.76E2,8E0,2E0,4E0,4E0,1.3E1,2E0,2E0,2E0,2E0,1E0,4E0,3E0,2E0,1E0,4E0,2.5E1,1.8E1],"tree_param":{"num_deleted":"0","num_feature":"4","num_nodes":"121","size_leaf_vector":"1"}},{"base_weights":[1.8854812E-2,2.3723985E-1,-1.280964E-1,2.4233947E-2,4.4542003E-1,-2.055678E-2,-2.4306464E-1,-4.5068923E-2,9.272198E-1,5.1787335E-1,-9.363896E-1,1.2931748E-1,-1.1646749E-1,-2.543149E-1,8.0007035E-1,-1.9303396E-1,1.9833301E-1,4.4798404E-1,8.9153546E-1,4.5221475E-1,3.1921725E0,-1.650735E0,-1.9737272E-1,3.0924844E-2,1.0513968E0,-1.2711835E-1,4.474397E-1,-3.302144E-1,-2.4211189E-1,4.2390174E-1,2.9358506E-1,-1.11491315E-1,-6.90877E-1,1.4271311E-1,9.307923E-1,8.155581E-1,-2.986512E-1,6.875333E-1,1.145686E-2,1.9001166E0,6.688087E-1,-1.7785041E0,-1.1345265E-1,-7.47624E-1,3.4570134E-1,1.3088371E-1,-5.277275E-1,1.8777674E0,-2.1628731E-1,1.6287689E-1,-1.7532907E-1,-1.6323832E-1,-3.7369546E-1,1.5454452E-2,1.6919655E-1,-7.941064E-2,9.2106365E-2,2.4796034E-1,-4.3607184E-1,1.0152475E-1,-1.9130671E-1,-2.6290772E-2,3.28584E-1,-1.6133139E-1,5.982981E-2,1.7566402E-1,2.0650527E0,9.187011E-1,-6.264836E-2,-2.2784032E-1,3.6472344E-1,-1.9443841E-1,-6.303087E-1,2.9359224E-1,-3.5953248E-1,-8.460149E-2,7.369026E-2,-6.1103195E-2,-2.3728094E-1,3.1331784E-1,1.1255908E0,-8.121928E-2,2.4722673E-2,7.153768E-2,-3.0849451E-2,-6.383951E-2,3.526519E-2,-2.244513E-1,-4.2190406E-2,-8.8306904E-2,-1.5367545E-1,-1.8303467E-2,2.525797E-2],"categories":[],"categories_nodes":[],"categories_segments":[],"categories_sizes":[],"default_left":[0,0,0,0,0,0,0,0,0,0,0,0,0,0,0,0,0,0,0,0,0,0,0,0,0,0,0,0,0,0,0,0,0,0,0,0,0,0,0,0,0,0,0,0,0,0,0,0,0,0,0,0,0,0,0,0,0,0,0,0,0,0,0,0,0,0,0,0,0,0,0,0,0,0,0,0,0,0,0,0,0,0,0,0,0,0,0,0,0,0,0,0,0],"id":5,"left_children":[1,3,5,7,9,11,13,15,17,19,21,23,25,27,29,31,33,35,-1,37,39,41,43,45,47,49,-1,-1,51,-1,53,55,57,59,-1,61,63,65,67,-1,69,71,-1,73,-1,75,77,79,81,83,85,87,89,91,-1,-1,-1,-1,-1,-1,-1,-1,-1,-1,-1,-1,-1,-1,-1,-1,-1,-1,-1,-1,-1,-1,-1,-1,-1,-1,-1,-1,-1,-1,-1,-1,-1,-1,-1,-1,-1,-1,-1],"loss_changes":[4.9548264E1,2.7526588E1,1.1406643E1,1.9316278E1,3.1921566E1,6.886094E0,5.437517E0,1.0374584E1,2.0224916E1,5.1058067E1,8.120802E0,1.6933212E1,5.190344E0,4.2987576E0,1.1373765E0,7.1895585E0,1.7164778E1,5.4579983E0,0E0,3.0381653E1,5.1254852E1,6.281643E-1,7.5456343E0,9.562254E0,1.9262522E1,4.0969934E0,0E0,0E0,4.474386E0,0E0,2.9211366E-1,1.0019968E1,3.013451E1,1.6710297E1,0E0,3.3803453E0,9.409622E-1,1.1666349E2,6.9861916E1,0E0,4.829198E0,1.1902847E0,0E0,6.6204586E0,0E0,6.93925E0,2.05652E0,1.3262508E1,1.5240744E-1,8.6799777E-1,2.7685127E0,3.5307221E0,1.6410618E0,2.09053E-2,0E0,0E0,0E0,0E0,0E0,0E0,0E0,0E0,0E0,0E0,0E0,0E0,0E0,0E0,0E0,0E0,0E0,0E0,0E0,0E0,0E0,0E0,0E0,0E0,0E0,0E0,0E0,0E0,0E0,0E0,0E0,0E0,0E0,0E0,0E0,0E0,0E0,0E0,0E0],"parents":[2147483647,0,0,1,1,2,2,3,3,4,4,5,5,6,6,7,7,8,8,9,9,10,10,11,11,12,12,13,13,14,14,15,15,16,16,17,17,19,19,20,20,21,21,22,22,23,23,24,24,25,25,28,28,30,30,31,31,32,32,33,33,35,35,36,36,37,37,38,38,40,40,41,41,43,43,45,45,46,46,47,47,48,48,49,49,50,50,51,51,52,52,53,53],"right_children":[2,4,6,8,10,12,14,16,18,20,22,24,26,28,30,32,34,36,-1,38,40,42,44,46,48,50,-1,-1,52,-1,54,56,58,60,-1,62,64,66,68,-1,70,72,-1,74,-1,76,78,80,82,84,86,88,90,92,-1,-1,-1,-1,-1,-1,-1,-1,-1,-1,-1,-1,-1,-1,-1,-1,-1,-1,-1,-1,-1,-1,-1,-1,-1,-1,-1,-1,-1,-1,-1,-1,-1,-1,-1,-1,-1,-1,-1],"split_conditions":[2.0203426E2,1.2239716E2,1.7771753E1,1.9120665E1,1.05E1,2.5006189E2,1.5300001E1,1.0000001E0,3.4999998E0,9.2E0,1.4399999E1,1.7294992E1,1.9200003E1,2.0278473E2,1.5500001E1,1.0128479E2,1.6545668E1,1.0128479E2,8.9153546E-1,1.9000002E0,1.5577228E2,1.3153998E1,1.8347433E2,1.6363178E1,1.05789995E1,-4.8980837E0,4.474397E-1,-3.302144E-1,2.764325E2,4.2390174E-1,2.1E1,1.2608169E1,2.983167E0,9.200002E0,9.307923E-1,4.191873E1,1.1920013E2,1.8000003E0,1.1298495E1,1.9001166E0,-5.564168E-1,1.5577228E2,-1.1345265E-1,1.4500002E1,3.4570134E-1,2.1360359E2,3E-1,7.0623345E0,2.4062433E2,3.328001E2,1.7178999E1,1.8057508E1,2.2734219E1,-3.0772502E0,1.6919655E-1,-7.941064E-2,9.2106365E-2,2.4796034E-1,-4.3607184E-1,1.0152475E-1,-1.9130671E-1,-2.6290772E-2,3.28584E-1,-1.6133139E-1,5.982981E-2,1.7566402E-1,2.0650527E0,9.187011E-1,-6.264836E-2,-2.2784032E-1,3.6472344E-1,-1.9443841E-1,-6.303087E-1,2.9359224E-1,-3.5953248E-1,-8.460149E-2,7.369026E-2,-6.1103195E-2,-2.3728094E-1,3.1331784E-1,1.1255908E0,-8.121928E-2,2.4722673E-2,7.153768E-2,-3.0849451E-2,-6.383951E-2,3.526519E-2,-2.244513E-1,-4.2190406E-2,-8.8306904E-2,-1.5367545E-1,-1.8303467E-2,2.525797E-2],"split_indices":[3,3,2,0,1,3,1,1,1,1,1,2,1,3,1,3,0,3,0,1,3,0,3,2,0,0,0,0,3,0,1,0,0,1,0,3,3,1,2,0,0,3,0,1,0,3,1,0,3,3,0,2,2,0,0,0,0,0,0,0,0,0,0,0,0,0,0,0,0,0,0,0,0,0,0,0,0,0,0,0,0,0,0,0,0,0,0,0,0,0,0,0,0],"split_type":[0,0,0,0,0,0,0,0,0,0,0,0,0,0,0,0,0,0,0,0,0,0,0,0,0,0,0,0,0,0,0,0,0,0,0,0,0,0,0,0,0,0,0,0,0,0,0,0,0,0,0,0,0,0,0,0,0,0,0,0,0,0,0,0,0,0,0,0,0,0,0,0,0,0,0,0,0,0,0,0,0,0,0,0,0,0,0,0,0,0,0,0,0],"sum_hessian":[1.542E3,6.2E2,9.22E2,3.07E2,3.13E2,4.77E2,4.45E2,2.86E2,2.1E1,2.98E2,1.5E1,1.86E2,2.91E2,4.41E2,4E0,1.78E2,1.08E2,1.8E1,3E0,2.92E2,6E0,7E0,8E0,1.69E2,1.7E1,2.9E2,1E0,5E0,4.36E2,1E0,3E0,1.54E2,2.4E1,1.07E2,1E0,1.2E1,6E0,1.9E2,1.02E2,2E0,4E0,6E0,1E0,6E0,2E0,1.44E2,2.5E1,1E1,7E0,4.1E1,2.49E2,2.74E2,1.62E2,2E0,1E0,1.13E2,4.1E1,8E0,1.6E1,8.6E1,2.1E1,3E0,9E0,4E0,2E0,1.88E2,2E0,6E0,9.6E1,1E0,3E0,2E0,4E0,1E0,5E0,3.1E1,1.13E2,1.2E1,1.3E1,8E0,2E0,6E0,1E0,3.2E1,9E0,2.21E2,2.8E1,9E0,2.65E2,1.05E2,5.7E1,1E0,1E0],"tree_param":{"num_deleted":"0","num_feature":"4","num_nodes":"93","size_leaf_vector":"1"}},{"base_weights":[1.8076612E-2,1.827782E-1,-8.748463E-2,-2.4861792E-2,3.2990244E-1,-9.889681E-2,1.2558227E0,6.6588193E-1,-3.0102116E-1,2.0071752E0,2.7459773E-1,-2.23111E-2,-1.9096379E-1,-1.12164915E-1,2.0990481E0,3.2918197E-1,4.3147182E0,-8.4605217E-1,-7.299253E-2,-1.0688376E-1,5.135185E-1,-3.443914E-2,1.5235276E0,-9.237154E-1,-1.7103328E-1,2.3806572E-2,-7.801191E-2,7.3115957E-1,1.1196714E-1,4.5050547E-1,-5.0828683E-1,5.7077103E0,-3.975363E-1,-3.8353525E-2,-2.8896654E0,1.7842765E0,-2.6506716E-1,-2.349179E-1,3.533341E-1,1.0111215E0,5.100316E-2,5.38931E-1,-4.9397554E-2,8.5582846E-1,1.2952924E-1,-3.1002042E-1,2.5971653E-2,-1.8020669E-1,8.1429255E-1,2.2473693E-2,-1.1760736E-2,6.6755265E-2,6.8255705E-1,1.5253201E-1,2.0641255E0,-1.2626135E-1,1.4076445E0,-1.0478969E0,-5.10346E-1,-1.9208187E-1,-4.4200756E-3,-5.138212E-2,-2.0458178E-1,6.150303E-1,-2.0406982E-2,1.7717347E-1,1.1728488E0,5.6020015E-1,-3.7240326E-2,1.9307603E-1,-1.07540704E-1,-1.6385866E-2,3.8032374E-1,7.029975E-2,-1.2011594E-2,-5.9397623E-2,3.8530014E-2,-1.5557939E-2,3.36089E-1],"categories":[],"categories_nodes":[],"categories_segments":[],"categories_sizes":[],"default_left":[0,0,0,0,0,0,0,0,0,0,0,0,0,0,0,0,0,0,0,0,0,0,0,0,0,0,0,0,0,0,0,0,0,0,0,0,0,0,0,0,0,0,0,0,0,0,0,0,0,0,0,0,0,0,0,0,0,0,0,0,0,0,0,0,0,0,0,0,0,0,0,0,0,0,0,0,0,0,0],"id":6,"left_children":[1,3,5,7,9,11,13,15,17,-1,19,21,23,25,27,29,31,33,35,37,39,41,43,45,47,49,-1,-1,-1,51,-1,53,-1,55,57,-1,59,61,63,65,67,69,71,-1,73,-1,-1,75,77,-1,-1,-1,-1,-1,-1,-1,-1,-1,-1,-1,-1,-1,-1,-1,-1,-1,-1,-1,-1,-1,-1,-1,-1,-1,-1,-1,-1,-1,-1],"loss_changes":[2.684275E1,1.842917E1,1.4549785E1,4.8080044E1,1.2233954E2,6.5813866E0,9.463617E0,8.703621E1,2.2309128E1,0E0,3.2046383E1,9.632694E0,6.0341597E0,8.661766E-2,2.008316E0,1.7211426E1,5.4700905E1,8.7372215E1,1.4959581E2,8.096615E0,4.966062E1,4.3835893E0,7.042283E0,1.308423E0,3.8888016E0,1.2597114E-2,0E0,0E0,0E0,2.6118118E1,0E0,2.6987839E1,0E0,7.2545296E1,4.813759E0,0E0,1.1731392E1,2.927384E0,2.158781E1,1.2445592E2,3.617798E1,1.4516408E0,3.4807909E0,0E0,6.269616E-2,0E0,0E0,2.2815237E0,1.118283E0,0E0,0E0,0E0,0E0,0E0,0E0,0E0,0E0,0E0,0E0,0E0,0E0,0E0,0E0,0E0,0E0,0E0,0E0,0E0,0E0,0E0,0E0,0E0,0E0,0E0,0E0,0E0,0E0,0E0,0E0],"parents":[2147483647,0,0,1,1,2,2,3,3,4,4,5,5,6,6,7,7,8,8,10,10,11,11,12,12,13,13,14,14,15,15,16,16,17,17,18,18,19,19,20,20,21,21,22,22,23,23,24,24,25,25,29,29,31,31,33,33,34,34,36,36,37,37,38,38,39,39,40,40,41,41,42,42,44,44,47,47,48,48],"right_children":[2,4,6,8,10,12,14,16,18,-1,20,22,24,26,28,30,32,34,36,38,40,42,44,46,48,50,-1,-1,-1,52,-1,54,-1,56,58,-1,60,62,64,66,68,70,72,-1,74,-1,-1,76,78,-1,-1,-1,-1,-1,-1,-1,-1,-1,-1,-1,-1,-1,-1,-1,-1,-1,-1,-1,-1,-1,-1,-1,-1,-1,-1,-1,-1,-1,-1],"split_conditions":[1.9885135E2,1.5021105E1,2.1389418E1,2.3602502E0,1.5124284E1,1.8228943E1,1E-1,1.8347433E2,8.079E0,2.0071752E0,8.905462E1,1.8204042E1,2.0278473E2,2.2774834E1,1.0000001E0,2.0748334E0,1.24811535E1,1.5577228E2,8.954E0,1.4778999E1,1.9000002E0,8.891344E0,2.1272948E2,2.8694056E1,1.5300001E1,2.2337334E1,-7.801191E-2,7.3115957E-1,1.1196714E-1,1.7102499E0,-5.0828683E-1,1.1165805E1,-3.975363E-1,1.4477283E2,8.000001E-1,1.7842765E0,1.4412334E1,7.95742E1,1.5827721E1,1.2000002E0,1.1133124E2,1.7566504E1,2.1E1,8.5582846E-1,3.7333343E-2,-3.1002042E-1,2.5971653E-2,1.6212332E1,-3.0772502E0,2.2473693E-2,-1.1760736E-2,6.6755265E-2,6.8255705E-1,1.5253201E-1,2.0641255E0,-1.2626135E-1,1.4076445E0,-1.0478969E0,-5.10346E-1,-1.9208187E-1,-4.4200756E-3,-5.138212E-2,-2.0458178E-1,6.150303E-1,-2.0406982E-2,1.7717347E-1,1.1728488E0,5.6020015E-1,-3.7240326E-2,1.9307603E-1,-1.07540704E-1,-1.6385866E-2,3.8032374E-1,7.029975E-2,-1.2011594E-2,-5.9397623E-2,3.8530014E-2,-1.5557939E-2,3.36089E-1],"split_indices":[3,2,0,0,2,2,1,3,0,0,3,2,3,0,1,0,2,3,0,0,1,2,3,2,1,0,0,0,0,0,0,2,0,3,1,0,0,3,2,1,3,0,1,0,0,0,0,0,0,0,0,0,0,0,0,0,0,0,0,0,0,0,0,0,0,0,0,0,0,0,0,0,0,0,0,0,0,0,0],"split_type":[0,0,0,0,0,0,0,0,0,0,0,0,0,0,0,0,0,0,0,0,0,0,0,0,0,0,0,0,0,0,0,0,0,0,0,0,0,0,0,0,0,0,0,0,0,0,0,0,0,0,0,0,0,0,0,0,0,0,0,0,0,0,0,0,0,0,0,0,0,0,0,0,0,0,0,0,0,0,0],"sum_hessian":[1.542E3,6.02E2,9.4E2,2.5E2,3.52E2,9.33E2,7E0,7.1E1,1.79E2,2E0,3.5E2,5.1E2,4.23E2,3E0,4E0,6.6E1,5E0,5.2E1,1.27E2,1.35E2,2.15E2,5.07E2,3E0,1E1,4.13E2,2E0,1E0,3E0,1E0,6.3E1,3E0,4E0,1E0,3.8E1,1.4E1,3E0,1.24E2,1.06E2,2.9E1,1.03E2,1.12E2,1.2E1,4.95E2,1E0,2E0,9E0,1E0,4.1E2,3E0,1E0,1E0,5.7E1,6E0,1E0,3E0,3.6E1,2E0,8E0,6E0,4.9E1,7.5E1,9.4E1,1.2E1,5E0,2.4E1,9.1E1,1.2E1,9E0,1.03E2,1.1E1,1E0,4.94E2,1E0,1E0,1E0,3.88E2,2.2E1,1E0,2E0],"tree_param":{"num_deleted":"0","num_feature":"4","num_nodes":"79","size_leaf_vector":"1"}},{"base_weights":[1.8969182E-2,-4.3435866E-4,5.8662635E-1,1.1235042E-1,-6.941876E-2,4.1093624E-1,2.1207886E0,1.9078329E-1,-2.7934536E-1,-7.681249E-2,5.5326074E-1,1.760065E-1,1.3833054E0,7.4770963E-1,9.517208E-2,2.5334805E-1,-6.244896E-1,-4.2790192E-1,1.1877398E0,3.0422391E-2,-1.1380754E-1,-3.1147254E-1,2.7494097E-1,1.2475682E0,8.436618E-2,1.6114771E0,-6.631011E-2,2.0531027E-1,3.693863E0,-9.408161E-1,-3.2524157E-1,-6.7361385E-1,-2.5068223E-2,6.411741E-1,6.1113113E-1,2.0350537E-1,-9.182619E-2,-7.005845E-1,-1.01358086E-1,-1.3224256E-2,-1.1577284E-1,-1.522733E-2,5.7663304E-1,2.4350736E-2,3.3673835E-1,1.0127013E-1,5.2357215E-1,4.7738943E-3,1.4130193E-1,-1.8807822E-1,1.4050219E0,-3.683703E-2,-3.609777E-1,2.5513947E-1,-1.31342E-1,1.4075712E-2,-2.7096596E-1,-4.3409146E-2,2.7249688E-1,-2.1123125E-1,3.8341382E-1,2.9543737E-1,-2.8349594E-3,-2.2723685E-1,-1.1975261E-2,-2.8704622E-1,-5.9839822E-2,3.0158892E-1,-3.33616E-2,-5.1338203E-2,5.6786872E-2],"categories":[],"categories_nodes":[],"categories_segments":[],"categories_sizes":[],"default_left":[0,0,0,0,0,0,0,0,0,0,0,0,0,0,0,0,0,0,0,0,0,0,0,0,0,0,0,0,0,0,0,0,0,0,0,0,0,0,0,0,0,0,0,0,0,0,0,0,0,0,0,0,0,0,0,0,0,0,0,0,0,0,0,0,0,0,0,0,0,0,0],"id":7,"left_children":[1,3,5,7,9,11,13,15,17,19,21,23,25,-1,-1,27,29,31,33,35,37,39,-1,41,43,45,-1,47,49,51,53,55,57,-1,59,61,63,65,67,-1,-1,-1,-1,69,-1,-1,-1,-1,-1,-1,-1,-1,-1,-1,-1,-1,-1,-1,-1,-1,-1,-1,-1,-1,-1,-1,-1,-1,-1,-1,-1],"loss_changes":[1.699572E1,1.1623922E1,1.2874887E1,1.7472569E1,4.310338E0,1.0493137E1,2.5601044E0,2.4284697E1,2.1213024E1,3.6413474E0,3.7403235E0,3.7244797E0,3.6507702E0,0E0,0E0,7.196249E1,2.9124498E0,8.594465E0,3.6213074E0,5.0122466E0,4.9110355E0,6.260407E-2,0E0,2.7248874E0,2.2778313E0,7.740841E-1,0E0,2.188263E1,2.8589813E1,3.2872143E0,2.886865E0,8.976067E0,3.9278913E0,0E0,7.0399275E0,1.6314438E1,4.7724867E0,1.6068115E0,7.4022183E0,0E0,0E0,0E0,0E0,1.193102E0,0E0,0E0,0E0,0E0,0E0,0E0,0E0,0E0,0E0,0E0,0E0,0E0,0E0,0E0,0E0,0E0,0E0,0E0,0E0,0E0,0E0,0E0,0E0,0E0,0E0,0E0,0E0],"parents":[2147483647,0,0,1,1,2,2,3,3,4,4,5,5,6,6,7,7,8,8,9,9,10,10,11,11,12,12,15,15,16,16,17,17,18,18,19,19,20,20,21,21,23,23,24,24,25,25,27,27,28,28,29,29,30,30,31,31,32,32,34,34,35,35,36,36,37,37,38,38,43,43],"right_children":[2,4,6,8,10,12,14,16,18,20,22,24,26,-1,-1,28,30,32,34,36,38,40,-1,42,44,46,-1,48,50,52,54,56,58,-1,60,62,64,66,68,-1,-1,-1,-1,70,-1,-1,-1,-1,-1,-1,-1,-1,-1,-1,-1,-1,-1,-1,-1,-1,-1,-1,-1,-1,-1,-1,-1,-1,-1,-1,-1],"split_conditions":[2.0549833E1,1.9885135E2,5.0999994E0,1.5578999E1,1.37E1,2.2774834E1,2.1056084E1,9.6E0,7.5E0,1.4917212E1,8.347749E0,7.95742E1,2.0901848E2,7.4770963E-1,9.517208E-2,9.2E0,1.4399999E1,1.8020666E1,6.3497482E1,4.7310834E0,1.5072783E1,-3.0772502E0,2.7494097E-1,2.0881086E1,2.4195107E1,9.768213E1,-6.631011E-2,1.3640907E2,-5.564168E-1,5.623334E-1,1.4500002E1,1.2984975E1,3.4999998E0,6.411741E-1,1.8993586E1,2.413944E2,5.308167E0,2.5006189E2,1.5124284E1,-1.3224256E-2,-1.1577284E-1,-1.522733E-2,5.7663304E-1,1.6666016E2,3.3673835E-1,1.0127013E-1,5.2357215E-1,4.7738943E-3,1.4130193E-1,-1.8807822E-1,1.4050219E0,-3.683703E-2,-3.609777E-1,2.5513947E-1,-1.31342E-1,1.4075712E-2,-2.7096596E-1,-4.3409146E-2,2.7249688E-1,-2.1123125E-1,3.8341382E-1,2.9543737E-1,-2.8349594E-3,-2.2723685E-1,-1.1975261E-2,-2.8704622E-1,-5.9839822E-2,3.0158892E-1,-3.33616E-2,-5.1338203E-2,5.6786872E-2],"split_indices":[0,3,1,0,1,0,0,1,1,2,0,3,3,0,0,1,1,0,3,0,2,0,0,0,2,3,0,3,0,0,1,2,1,0,0,3,0,3,2,0,0,0,0,3,0,0,0,0,0,0,0,0,0,0,0,0,0,0,0,0,0,0,0,0,0,0,0,0,0,0,0],"split_type":[0,0,0,0,0,0,0,0,0,0,0,0,0,0,0,0,0,0,0,0,0,0,0,0,0,0,0,0,0,0,0,0,0,0,0,0,0,0,0,0,0,0,0,0,0,0,0,0,0,0,0,0,0,0,0,0,0,0,0,0,0,0,0,0,0,0,0,0,0,0,0],"sum_hessian":[1.542E3,1.492E3,5E1,5.66E2,9.26E2,4.6E1,4E0,4.72E2,9.4E1,9.16E2,1E1,3.8E1,8E0,3E0,1E0,4.39E2,3.3E1,8.6E1,8E0,2.35E2,6.81E2,3E0,7E0,2E0,3.6E1,7E0,1E0,4.34E2,5E0,1.5E1,1.8E1,5.3E1,3.3E1,2E0,6E0,9.7E1,1.38E2,1.3E1,6.68E2,1E0,2E0,1E0,1E0,3.5E1,1E0,1E0,6E0,2.54E2,1.8E2,1E0,4E0,4E0,1.1E1,1E0,1.7E1,1.3E1,4E1,3E1,3E0,2E0,4E0,2E1,7.7E1,9E0,1.29E2,8E0,5E0,5E0,6.63E2,1.6E1,1.9E1],"tree_param":{"num_deleted":"0","num_feature":"4","num_nodes":"71","size_leaf_vector":"1"}},{"base_weights":[1.606535E-2,1.0323278E-3,4.558347E-1,4.8135212E-1,-1.3202533E-2,3.1876442E-1,1.6531283E0,2.6652193E-1,1.5481185E0,-1.5103543E-1,1.2349525E-2,1.463736E-1,1.0303731E0,5.79475E-1,8.089629E-2,7.6257104E-1,-3.3945132E-2,2.102468E0,3.2448962E-2,7.569106E-1,-1.9199151E-1,6.356006E-1,-3.8288299E-3,8.485787E-1,4.1876487E-2,4.700605E-1,4.839746E-1,1.3389325E0,-5.066514E-3,-4.194285E-1,4.5975596E-1,-1.9287819E-2,7.9806936E-1,1.1686522E0,-1.528646E-1,-9.131904E-1,-1.303461E-1,3.1537743E0,-2.3027396E-1,-6.629273E-1,9.097935E-3,1.2265773E0,-9.951239E-2,-4.0995035E-1,1.6947427E-1,1.1857046E0,-6.408184E-1,1.5345138E-1,7.642433E-1,1.1675558E-1,-1.194155E-1,4.423063E-2,-1.9827528E-1,-1.1557539E-1,1.7483455E-1,9.100605E-2,5.2253634E-1,-1.2175684E-1,9.0916485E-2,-4.564382E-1,-1.1611136E-2,-9.5251314E-2,-5.8994144E-3,4.9293345E-1,2.0592623E0,-1.0101173E-1,1.15818426E-1,-5.2816284E-1,-1.017571E-1,5.2010518E-2,-1.4189464E-2,-1.2943232E-2,4.992598E-1,-3.293558E-2,-1.7042771E-1,-2.8475374E-2,1.4455308E-1,1.4955722E-1,4.8708695E-1,-5.6363586E-2,-2.3200472E-1],"categories":[],"categories_nodes":[],"categories_segments":[],"categories_sizes":[],"default_left":[0,0,0,0,0,0,0,0,0,0,0,0,0,0,0,0,0,0,0,0,0,0,0,0,0,0,0,0,0,0,0,0,0,0,0,0,0,0,0,0,0,0,0,0,0,0,0,0,0,0,0,0,0,0,0,0,0,0,0,0,0,0,0,0,0,0,0,0,0,0,0,0,0,0,0,0,0,0,0,0,0],"id":8,"left_children":[1,3,5,7,9,11,13,15,17,19,21,23,25,-1,-1,27,29,31,-1,33,35,37,39,41,43,45,-1,47,49,51,53,-1,-1,55,57,59,61,63,65,67,69,71,-1,73,75,77,79,-1,-1,-1,-1,-1,-1,-1,-1,-1,-1,-1,-1,-1,-1,-1,-1,-1,-1,-1,-1,-1,-1,-1,-1,-1,-1,-1,-1,-1,-1,-1,-1,-1,-1],"loss_changes":[1.0200398E1,1.0214422E1,7.84282E0,9.441857E0,5.112163E0,5.614896E0,1.4053164E0,5.5406036E0,5.360258E0,8.586523E0,1.2354326E1,2.8262224E0,2.1810074E0,0E0,0E0,6.200897E0,4.76036E0,6.213732E0,0E0,3.9245672E0,9.572944E0,6.8319336E1,1.0187445E1,2.637599E0,2.0873E0,5.5297847E0,0E0,6.696825E0,1.2394615E0,2.0139232E0,1.3680527E0,0E0,0E0,2.9431572E0,5.8437175E-1,8.983826E0,4.178174E0,3.356305E1,1.704333E0,7.575632E0,1.0875132E1,2.2944322E0,0E0,3.173815E-1,2.3581996E0,3.943014E-1,3.4789443E-2,0E0,0E0,0E0,0E0,0E0,0E0,0E0,0E0,0E0,0E0,0E0,0E0,0E0,0E0,0E0,0E0,0E0,0E0,0E0,0E0,0E0,0E0,0E0,0E0,0E0,0E0,0E0,0E0,0E0,0E0,0E0,0E0,0E0,0E0],"parents":[2147483647,0,0,1,1,2,2,3,3,4,4,5,5,6,6,7,7,8,8,9,9,10,10,11,11,12,12,15,15,16,16,17,17,19,19,20,20,21,21,22,22,23,23,24,24,25,25,27,27,28,28,29,29,30,30,33,33,34,34,35,35,36,36,37,37,38,38,39,39,40,40,41,41,43,43,44,44,45,45,46,46],"right_children":[2,4,6,8,10,12,14,16,18,20,22,24,26,-1,-1,28,30,32,-1,34,36,38,40,42,44,46,-1,48,50,52,54,-1,-1,56,58,60,62,64,66,68,70,72,-1,74,76,78,80,-1,-1,-1,-1,-1,-1,-1,-1,-1,-1,-1,-1,-1,-1,-1,-1,-1,-1,-1,-1,-1,-1,-1,-1,-1,-1,-1,-1,-1,-1,-1,-1,-1,-1],"split_conditions":[2.0549833E1,9.449572E0,5.0999994E0,9.36E0,-5.564168E-1,2.2774834E1,2.1056084E1,8.12197E0,6.4581676E0,1.0787993E1,-1.7724998E-1,1.0128479E2,1E-1,5.79475E-1,8.089629E-2,1.6104108E2,3E-1,9.666948E0,3.2448962E-2,2.3725418E2,1.2074766E1,1.3004922E1,1.0239453E1,2.1389418E1,1.4046825E2,1.7908336E2,4.839746E-1,1.4046825E2,-1.910583E0,-3.175167E0,7.9358333E-1,-1.9287819E-2,7.9806936E-1,1.0239453E1,1E-1,2.4179582E2,2.3359337E2,1.2000002E0,3.3472748E2,1.7102499E0,1.639867E2,2.0881086E1,-9.951239E-2,1.3910169E1,1.5158522E1,1.757744E1,1.224E1,1.5345138E-1,7.642433E-1,1.1675558E-1,-1.194155E-1,4.423063E-2,-1.9827528E-1,-1.1557539E-1,1.7483455E-1,9.100605E-2,5.2253634E-1,-1.2175684E-1,9.0916485E-2,-4.564382E-1,-1.1611136E-2,-9.5251314E-2,-5.8994144E-3,4.9293345E-1,2.0592623E0,-1.0101173E-1,1.15818426E-1,-5.2816284E-1,-1.017571E-1,5.2010518E-2,-1.4189464E-2,-1.2943232E-2,4.992598E-1,-3.293558E-2,-1.7042771E-1,-2.8475374E-2,1.4455308E-1,1.4955722E-1,4.8708695E-1,-5.6363586E-2,-2.3200472E-1],"split_indices":[0,2,1,2,0,0,0,2,0,2,0,3,1,0,0,3,1,3,0,3,2,2,2,0,3,3,0,3,0,0,0,0,0,2,1,3,3,1,3,0,3,0,0,2,2,2,2,0,0,0,0,0,0,0,0,0,0,0,0,0,0,0,0,0,0,0,0,0,0,0,0,0,0,0,0,0,0,0,0,0,0],"split_type":[0,0,0,0,0,0,0,0,0,0,0,0,0,0,0,0,0,0,0,0,0,0,0,0,0,0,0,0,0,0,0,0,0,0,0,0,0,0,0,0,0,0,0,0,0,0,0,0,0,0,0,0,0,0,0,0,0,0,0,0,0,0,0,0,0,0,0,0,0,0,0,0,0,0,0,0,0,0,0,0,0],"sum_hessian":[1.542E3,1.492E3,5E1,4.2E1,1.45E3,4.6E1,4E0,3.6E1,6E0,2.26E2,1.224E3,3.8E1,8E0,3E0,1E0,1.3E1,2.3E1,4E0,2E0,9E0,2.17E2,3E1,1.194E3,4E0,3.4E1,5E0,3E0,7E0,6E0,1.3E1,1E1,1E0,3E0,6E0,3E0,1.6E1,2.01E2,7E0,2.3E1,2.2E1,1.172E3,3E0,1E0,7E0,2.7E1,3E0,2E0,5E0,2E0,3E0,3E0,4E0,9E0,1E0,9E0,3E0,3E0,2E0,1E0,9E0,7E0,7.4E1,1.27E2,6E0,1E0,2E1,3E0,4E0,1.8E1,2.99E2,8.73E2,1E0,2E0,3E0,4E0,1.5E1,1.2E1,2E0,1E0,1E0,1E0],"tree_param":{"num_deleted":"0","num_feature":"4","num_nodes":"81","size_leaf_vector":"1"}},{"base_weights":[1.4753208E-2,7.166363E-2,-5.71992E-2,-2.431579E-1,1.0418139E-1,-7.177854E-2,3.1340966E-1,3.2896873E-2,-8.283852E-1,3.669324E-1,3.4398917E-2,6.4290136E-2,-9.156599E-2,7.9889005E-1,1.1290869E-1,-4.233903E-1,1.9507332E-1,-1.0469378E0,7.4613474E-2,1.0986692E0,5.467347E-2,-1.7946605E-1,1.5784153E-1,6.277466E-1,3.5671417E-2,-9.780185E-2,2.3648773E-1,-1.6545935E-1,3.4344497E-1,-1.5476766E-1,-5.9596624E-2,4.0005233E-2,6.284465E-1,-1.3172753E0,-1.5154828E-1,2.0333926E-1,-3.964279E-1,8.7845075E-1,1.7503729E0,-1.4640959E-1,2.200795E0,-3.5032547E-1,1.3282777E-1,1.5100297E0,1.0743076E-1,-1.0017985E-1,3.1788522E-1,1.2027445E-1,-1.3798925E-1,-4.701279E-2,-1.473567E-1,-1.8407664E-1,5.031069E-1,-2.995572E-1,3.366867E-1,-1.2436619E-1,5.4300606E-1,6.680325E-2,-1.1524243E-1,3.983282E-1,6.007009E-2,-4.5464787E-1,-2.2029924E-1,9.306661E-2,-9.178402E-2,-2.9553205E-1,3.8450204E-2,1.0892571E-1,5.6594646E-1,-4.64478E-1,-9.839241E-3,1.2752304E0,3.7705533E-2,-3.5505306E-2,-3.110342E-1,3.4389699E-1,6.4397217E-3,8.815855E-2,-5.3135592E-2,1.6793111E-2,1.2120454E-1,-7.229737E-2,2.8437456E-2,-6.260687E-2,3.946575E-3,-8.5230134E-2,-2.8337285E-2,-3.988946E-3,-1.3007958E-1,3.2203227E-2,4.3165258E-1,-1.0315371E-1,1.4855863E-2,1.2256834E-1,2.894068E-2,-8.8032864E-2,2.5849773E-2,1.1785482E-1,2.841624E-1],"categories":[],"categories_nodes":[],"categories_segments":[],"categories_sizes":[],"default_left":[0,0,0,0,0,0,0,0,0,0,0,0,0,0,0,0,0,0,0,0,0,0,0,0,0,0,0,0,0,0,0,0,0,0,0,0,0,0,0,0,0,0,0,0,0,0,0,0,0,0,0,0,0,0,0,0,0,0,0,0,0,0,0,0,0,0,0,0,0,0,0,0,0,0,0,0,0,0,0,0,0,0,0,0,0,0,0,0,0,0,0,0,0,0,0,0,0,0,0],"id":9,"left_children":[1,3,5,7,9,11,13,15,17,19,21,23,25,-1,27,29,31,33,35,37,39,41,43,45,47,49,51,53,55,-1,-1,57,59,61,63,-1,65,67,-1,69,71,73,75,-1,77,-1,-1,79,81,83,85,87,89,91,93,95,97,-1,-1,-1,-1,-1,-1,-1,-1,-1,-1,-1,-1,-1,-1,-1,-1,-1,-1,-1,-1,-1,-1,-1,-1,-1,-1,-1,-1,-1,-1,-1,-1,-1,-1,-1,-1,-1,-1,-1,-1,-1,-1],"loss_changes":[6.322441E0,8.8498745E0,3.7075026E0,1.3113188E1,1.4325671E1,1.7748268E0,1.1947626E1,4.226537E0,5.2092876E0,3.7412514E1,1.636996E1,1.332141E0,1.1973591E0,0E0,1.6611743E0,2.0934129E-1,2.7973573E0,4.8835754E0,1.9734455E0,4.5978374E1,5.0381866E1,1.2158876E1,9.605171E1,2.015126E0,1.2066664E0,1.4125729E0,1.3260458E0,9.088975E-1,1.3745279E0,0E0,0E0,2.5648935E0,3.0281467E0,7.359257E-1,5.2269113E-1,0E0,1.3615313E0,2.4251389E1,0E0,1.6990808E1,4.200493E1,2.328558E1,9.117452E0,0E0,2.0741093E1,0E0,0E0,9.807931E-1,6.7021966E-1,2.7265222E0,2.0347466E0,2.0730166E-1,2.4378524E0,1.7162794E-1,1.2383074E-2,2.0326512E-1,2.3482609E-1,0E0,0E0,0E0,0E0,0E0,0E0,0E0,0E0,0E0,0E0,0E0,0E0,0E0,0E0,0E0,0E0,0E0,0E0,0E0,0E0,0E0,0E0,0E0,0E0,0E0,0E0,0E0,0E0,0E0,0E0,0E0,0E0,0E0,0E0,0E0,0E0,0E0,0E0,0E0,0E0,0E0,0E0],"parents":[2147483647,0,0,1,1,2,2,3,3,4,4,5,5,6,6,7,7,8,8,9,9,10,10,11,11,12,12,14,14,15,15,16,16,17,17,18,18,19,19,20,20,21,21,22,22,23,23,24,24,25,25,26,26,27,27,28,28,31,31,32,32,33,33,34,34,36,36,37,37,39,39,40,40,41,41,42,42,44,44,47,47,48,48,49,49,50,50,51,51,52,52,53,53,54,54,55,55,56,56],"right_children":[2,4,6,8,10,12,14,16,18,20,22,24,26,-1,28,30,32,34,36,38,40,42,44,46,48,50,52,54,56,-1,-1,58,60,62,64,-1,66,68,-1,70,72,74,76,-1,78,-1,-1,80,82,84,86,88,90,92,94,96,98,-1,-1,-1,-1,-1,-1,-1,-1,-1,-1,-1,-1,-1,-1,-1,-1,-1,-1,-1,-1,-1,-1,-1,-1,-1,-1,-1,-1,-1,-1,-1,-1,-1,-1,-1,-1,-1,-1,-1,-1,-1,-1],"split_conditions":[2.3725418E2,-1.0189165E0,1.8764418E1,9.768213E1,2.983167E0,-3.175167E0,1.8993586E1,-4.698084E0,2.181292E2,1.3830749E1,1.5021105E1,2.4179582E2,3.544895E2,7.9889005E-1,2.648513E2,-5.716833E0,5.869646E1,2.0240196E1,-2.7605832E0,4.5000005E0,2.8206666E0,1.8257089E2,1.5124284E1,-7.5043335E0,1.6946787E1,2.764325E2,2E-1,2.0380579E1,1E-1,-1.5476766E-1,-5.9596624E-2,4.0296288E1,6.6099365E1,-1.4501663E0,2E-1,2.0333926E-1,2E-1,1.1966954E1,1.7503729E0,1.4332341E1,2.0380579E1,1.5577228E2,4.7310834E0,1.5100297E0,1.6000001E0,-1.0017985E-1,3.1788522E-1,1.5379206E1,3.230499E2,2.4752051E2,2.943516E2,4.8789997E0,1.8185835E0,2.1389418E1,1.9120665E1,1.9862333E1,1.35E1,6.680325E-2,-1.1524243E-1,3.983282E-1,6.007009E-2,-4.5464787E-1,-2.2029924E-1,9.306661E-2,-9.178402E-2,-2.9553205E-1,3.8450204E-2,1.0892571E-1,5.6594646E-1,-4.64478E-1,-9.839241E-3,1.2752304E0,3.7705533E-2,-3.5505306E-2,-3.110342E-1,3.4389699E-1,6.4397217E-3,8.815855E-2,-5.3135592E-2,1.6793111E-2,1.2120454E-1,-7.229737E-2,2.8437456E-2,-6.260687E-2,3.946575E-3,-8.5230134E-2,-2.8337285E-2,-3.988946E-3,-1.3007958E-1,3.2203227E-2,4.3165258E-1,-1.0315371E-1,1.4855863E-2,1.2256834E-1,2.894068E-2,-8.8032864E-2,2.5849773E-2,1.1785482E-1,2.841624E-1],"split_indices":[3,0,0,3,0,0,0,0,3,2,2,3,3,0,3,0,3,2,0,1,0,3,2,0,2,3,1,2,1,0,0,3,3,0,1,0,1,2,0,2,2,3,0,0,1,0,0,2,3,3,3,0,0,0,0,0,1,0,0,0,0,0,0,0,0,0,0,0,0,0,0,0,0,0,0,0,0,0,0,0,0,0,0,0,0,0,0,0,0,0,0,0,0,0,0,0,0,0,0],"split_type":[0,0,0,0,0,0,0,0,0,0,0,0,0,0,0,0,0,0,0,0,0,0,0,0,0,0,0,0,0,0,0,0,0,0,0,0,0,0,0,0,0,0,0,0,0,0,0,0,0,0,0,0,0,0,0,0,0,0,0,0,0,0,0,0,0,0,0,0,0,0,0,0,0,0,0,0,0,0,0,0,0,0,0,0,0,0,0,0,0,0,0,0,0,0,0,0,0,0,0],"sum_hessian":[1.542E3,8.61E2,6.81E2,8E1,7.81E2,6.56E2,2.5E1,5.5E1,2.5E1,1.63E2,6.18E2,8.3E1,5.73E2,1E0,2.4E1,1.4E1,4.1E1,2E1,5E0,4.8E1,1.15E2,2.26E2,3.92E2,3E0,8E1,5.63E2,1E1,1.1E1,1.3E1,9E0,5E0,3.1E1,1E1,1.5E1,5E0,2E0,3E0,4.7E1,1E0,1.06E2,9E0,1.46E2,8E1,3E0,3.89E2,1E0,2E0,5.4E1,2.6E1,2.79E2,2.84E2,4E0,6E0,9E0,2E0,4E0,9E0,2.2E1,9E0,3E0,7E0,1E1,5E0,1E0,4E0,1E0,2E0,3.2E1,1.5E1,7E0,9.9E1,4E0,5E0,1.1E2,3.6E1,7E0,7.3E1,2.35E2,1.54E2,4.5E1,9E0,1.8E1,8E0,7.5E1,2.04E2,7.8E1,2.06E2,3E0,1E0,5E0,1E0,8E0,1E0,1E0,1E0,2E0,2E0,8E0,1E0],"tree_param":{"num_deleted":"0","num_feature":"4","num_nodes":"99","size_leaf_vector":"1"}},{"base_weights":[1.4184808E-2,2.605278E-3,3.5289174E-1,3.260302E-1,-9.758151E-3,2.4488525E-1,1.2975744E0,-9.420399E-2,5.8835727E-1,-6.409334E-1,-2.210901E-3,1.1386501E-1,7.854302E-1,5.280551E-1,1.20732166E-1,3.313001E-1,-7.456322E-1,1.6074107E0,2.6462454E-1,3.9839563E-1,-8.060703E-1,2.7557418E-1,-1.35806035E-2,8.8077635E-1,4.8605576E-2,9.243381E-1,-4.8875E-2,-2.9280743E-1,6.102239E-1,-8.60749E-2,-3.183195E-1,7.9527575E-1,-9.882736E-2,1.4592262E-1,7.5772846E-1,-1.404369E-2,1.9332172E-1,-1.320877E0,-3.1610185E-1,-3.2303333E-1,1.9333036E0,-5.551333E-1,6.3822983E-4,-2.4225535E-2,4.205749E-1,3.4148495E-3,2.5132078E-1,4.9893445E-1,3.6750245E-1,-1.3863018E-1,5.7654765E-2,-1.1673575E-2,3.1483993E-1,3.1600937E-2,-5.5497255E-2,-1.9298409E-1,8.912511E-2,-1.44655E-3,1.4735106E-1,2.915055E-1,-1.4714563E-2,-4.0553093E-2,-5.3043646E-1,-3.3024617E-2,-1.3767038E-1,-5.0966248E-2,-3.193479E-1,2.4759245E-1,1.4321892E0,-1.0275037E-1,-4.070198E-1,3.596388E-1,-1.7033526E-3,1.2343014E-1,-2.2700014E-2,2.861854E-1,-1.9816998E-1],"categories":[],"categories_nodes":[],"categories_segments":[],"categories_sizes":[],"default_left":[0,0,0,0,0,0,0,0,0,0,0,0,0,0,0,0,0,0,0,0,0,0,0,0,0,0,0,0,0,0,0,0,0,0,0,0,0,0,0,0,0,0,0,0,0,0,0,0,0,0,0,0,0,0,0,0,0,0,0,0,0,0,0,0,0,0,0,0,0,0,0,0,0,0,0,0,0],"id":10,"left_children":[1,3,5,7,9,11,13,15,17,19,21,23,25,-1,-1,27,29,31,33,35,37,39,41,43,45,47,-1,49,51,53,-1,-1,55,57,59,-1,-1,61,63,65,67,69,71,-1,-1,73,-1,75,-1,-1,-1,-1,-1,-1,-1,-1,-1,-1,-1,-1,-1,-1,-1,-1,-1,-1,-1,-1,-1,-1,-1,-1,-1,-1,-1,-1,-1],"loss_changes":[6.05083E0,5.9731526E0,4.8858685E0,6.1185594E0,6.8534575E0,3.239216E0,1.3621159E0,6.3451056E0,1.0791272E1,3.238872E0,4.4980516E0,1.9090691E0,1.3361864E0,0E0,0E0,2.6157758E0,1.7810826E0,1.4505774E1,1.469805E0,3.5874307E-1,3.3660536E0,5.6194958E1,1.0534292E1,1.6164794E0,1.3166101E0,4.1205025E-1,0E0,4.9933502E-1,2.8921175E0,9.522082E-2,0E0,0E0,1.0533278E0,1.1993839E0,9.1073513E-1,0E0,0E0,3.4730759E0,2.1425867E-1,4.5883174E0,4.3271584E1,5.5009174E0,1.0102052E1,0E0,0E0,1.1927357E0,0E0,3.2681112E0,0E0,0E0,0E0,0E0,0E0,0E0,0E0,0E0,0E0,0E0,0E0,0E0,0E0,0E0,0E0,0E0,0E0,0E0,0E0,0E0,0E0,0E0,0E0,0E0,0E0,0E0,0E0,0E0,0E0],"parents":[2147483647,0,0,1,1,2,2,3,3,4,4,5,5,6,6,7,7,8,8,9,9,10,10,11,11,12,12,15,15,16,16,17,17,18,18,19,19,20,20,21,21,22,22,23,23,24,24,25,25,27,27,28,28,29,29,32,32,33,33,34,34,37,37,38,38,39,39,40,40,41,41,42,42,45,45,47,47],"right_children":[2,4,6,8,10,12,14,16,18,20,22,24,26,-1,-1,28,30,32,34,36,38,40,42,44,46,48,-1,50,52,54,-1,-1,56,58,60,-1,-1,62,64,66,68,70,72,-1,-1,74,-1,76,-1,-1,-1,-1,-1,-1,-1,-1,-1,-1,-1,-1,-1,-1,-1,-1,-1,-1,-1,-1,-1,-1,-1,-1,-1,-1,-1,-1,-1],"split_conditions":[2.0549833E1,9.793058E0,5.0999994E0,1.374943E2,1.0239453E1,2.2774834E1,7.7999997E0,2.983167E0,1.6104108E2,-3.862667E0,1.1298495E1,7.95742E1,2.0901848E2,5.280551E-1,1.20732166E-1,7.9358333E-1,5.163249E1,1.5526916E1,9.449572E0,-4.8980837E0,7.508167E0,1.0000001E0,1.1874544E1,2.0881086E1,2.4195107E1,1E-1,-4.8875E-2,9.585739E0,4.4470886E1,9.028754E0,-3.183195E-1,7.9527575E-1,1.8020666E1,9E-1,5.6664996E0,-1.404369E-2,1.9332172E-1,9.957108E0,1.4650656E2,1.1165805E1,1.097262E1,1.3E0,1.191812E1,-2.4225535E-2,4.205749E-1,2.0714417E1,2.5132078E-1,1.7908336E2,3.6750245E-1,-1.3863018E-1,5.7654765E-2,-1.1673575E-2,3.1483993E-1,3.1600937E-2,-5.5497255E-2,-1.9298409E-1,8.912511E-2,-1.44655E-3,1.4735106E-1,2.915055E-1,-1.4714563E-2,-4.0553093E-2,-5.3043646E-1,-3.3024617E-2,-1.3767038E-1,-5.0966248E-2,-3.193479E-1,2.4759245E-1,1.4321892E0,-1.0275037E-1,-4.070198E-1,3.596388E-1,-1.7033526E-3,1.2343014E-1,-2.2700014E-2,2.861854E-1,-1.9816998E-1],"split_indices":[0,2,1,3,2,0,1,0,3,0,2,3,3,0,0,0,3,0,2,0,0,1,2,0,2,1,0,2,3,2,0,0,0,1,0,0,0,2,3,2,2,1,2,0,0,0,0,3,0,0,0,0,0,0,0,0,0,0,0,0,0,0,0,0,0,0,0,0,0,0,0,0,0,0,0,0,0],"split_type":[0,0,0,0,0,0,0,0,0,0,0,0,0,0,0,0,0,0,0,0,0,0,0,0,0,0,0,0,0,0,0,0,0,0,0,0,0,0,0,0,0,0,0,0,0,0,0,0,0,0,0,0,0,0,0,0,0,0,0,0,0,0,0,0,0,0,0,0,0,0,0,0,0,0,0,0,0],"sum_hessian":[1.542E3,1.492E3,5E1,5.4E1,1.438E3,4.6E1,4E0,2.1E1,3.3E1,1.6E1,1.422E3,3.8E1,8E0,2E0,2E0,1.3E1,8E0,7E0,2.6E1,2E0,1.4E1,5.5E1,1.367E3,2E0,3.6E1,7E0,1E0,4E0,9E0,3E0,5E0,4E0,3E0,2.2E1,4E0,1E0,1E0,6E0,8E0,4.1E1,1.4E1,3.4E1,1.333E3,1E0,1E0,3.5E1,1E0,4E0,3E0,3E0,1E0,4E0,5E0,1E0,2E0,1E0,2E0,1.6E1,6E0,3E0,1E0,2E0,4E0,4E0,4E0,3.5E1,6E0,1.1E1,3E0,2.8E1,6E0,6E0,1.327E3,5E0,3E1,3E0,1E0],"tree_param":{"num_deleted":"0","num_feature":"4","num_nodes":"77","size_leaf_vector":"1"}},{"base_weights":[1.2128394E-2,2.0614184E-2,-3.1564704E-1,6.511884E-3,1.9766007E-1,-4.3539637E-1,5.857278E-1,3.768545E-2,-1.7672248E-1,1.1721315E-1,7.4666995E-1,-3.126909E-1,-2.7388802E-1,4.5764723E-1,-1.6478333E-1,2.4226401E-2,8.68038E-1,-2.3737714E-1,3.082869E-1,6.813373E-2,5.9498376E-1,1.4367439E0,3.26966E-1,-3.1573108E-1,1.3465756E-1,1.0940092E-2,3.500808E-1,-2.925946E-1,1.274624E0,-4.2982867E-1,-6.999646E-2,2.3271658E-2,8.397815E-1,3.2224968E-1,-4.5888197E-2,2.5955474E-1,2.8481442E-1,1.3338715E-1,5.849848E-1,-1.6759586E-1,6.182023E-1,-5.7346576E-1,-1.839639E-1,1.1341263E-2,-8.364079E-2,6.0699724E-2,7.2010905E-1,7.6030356E-1,1.4148852E-1,1.63165E-1,-1.4559385E-1,1.6230813E-1,-4.8463974E-2,4.028379E-1,-4.626479E-2,4.1446555E-1,-1.4213008E-2,4.6453644E-2,4.9970093E-1,-7.097878E-2,1.8664028E-2,-4.970923E-2,3.5787237E-1,2.2341095E-1,4.7739983E-2,-2.19991E-1,-2.8068782E-3,-9.831948E-2,-1.8242346E-2],"categories":[],"categories_nodes":[],"categories_segments":[],"categories_sizes":[],"default_left":[0,0,0,0,0,0,0,0,0,0,0,0,0,0,0,0,0,0,0,0,0,0,0,0,0,0,0,0,0,0,0,0,0,0,0,0,0,0,0,0,0,0,0,0,0,0,0,0,0,0,0,0,0,0,0,0,0,0,0,0,0,0,0,0,0,0,0,0,0],"id":11,"left_children":[1,3,5,7,9,11,13,15,17,19,21,-1,23,-1,-1,25,27,29,31,33,35,37,39,41,-1,43,45,-1,47,49,51,53,55,57,59,61,-1,-1,-1,-1,63,65,67,-1,-1,-1,-1,-1,-1,-1,-1,-1,-1,-1,-1,-1,-1,-1,-1,-1,-1,-1,-1,-1,-1,-1,-1,-1,-1],"loss_changes":[4.2982583E0,3.756328E0,4.4646473E0,7.9749956E0,4.814923E0,3.1452417E0,6.171099E0,1.3311647E1,6.04505E0,2.2574348E0,3.5850081E0,0E0,1.018734E0,0E0,0E0,5.0832176E0,1.5483312E1,5.8004084E0,3.4645903E0,2.6225185E0,8.234608E-1,1.678813E0,2.9246042E0,8.4541035E-1,0E0,8.806102E0,1.3448923E1,0E0,1.4989536E1,4.802101E0,5.56945E0,3.9542594E0,3.9105406E0,6.0391154E0,1.3135159E0,2.5791245E0,0E0,0E0,0E0,0E0,3.4607387E-1,8.0463195E-1,3.3418864E-1,0E0,0E0,0E0,0E0,0E0,0E0,0E0,0E0,0E0,0E0,0E0,0E0,0E0,0E0,0E0,0E0,0E0,0E0,0E0,0E0,0E0,0E0,0E0,0E0,0E0,0E0],"parents":[2147483647,0,0,1,1,2,2,3,3,4,4,5,5,6,6,7,7,8,8,9,9,10,10,12,12,15,15,16,16,17,17,18,18,19,19,20,20,21,21,22,22,23,23,25,25,26,26,28,28,29,29,30,30,31,31,32,32,33,33,34,34,35,35,40,40,41,41,42,42],"right_children":[2,4,6,8,10,12,14,16,18,20,22,-1,24,-1,-1,26,28,30,32,34,36,38,40,42,-1,44,46,-1,48,50,52,54,56,58,60,62,-1,-1,-1,-1,64,66,68,-1,-1,-1,-1,-1,-1,-1,-1,-1,-1,-1,-1,-1,-1,-1,-1,-1,-1,-1,-1,-1,-1,-1,-1,-1,-1],"split_conditions":[3.05173E1,1.8764418E1,9.4E0,1.5176915E1,5.0999994E0,1.9441222E2,9.6E0,1.4920667E1,5.5999994E0,2.2774834E1,8.900001E0,-3.126909E-1,6.9000006E0,4.5764723E-1,-1.6478333E-1,2.8054604E1,2.3323118E1,2.154146E2,1.6470667E1,1.3779114E1,1E-1,6.2000003E0,9.799999E0,2.3725418E2,1.3465756E-1,2.436325E1,1.2787334E1,-2.925946E-1,8.905462E1,1.5374269E1,2.2443501E2,6.7999997E0,1.7566504E1,1E0,1.5629971E1,1.757744E1,2.8481442E-1,1.3338715E-1,5.849848E-1,-1.6759586E-1,2.764325E2,2.7000003E0,3.2706668E0,1.1341263E-2,-8.364079E-2,6.0699724E-2,7.2010905E-1,7.6030356E-1,1.4148852E-1,1.63165E-1,-1.4559385E-1,1.6230813E-1,-4.8463974E-2,4.028379E-1,-4.626479E-2,4.1446555E-1,-1.4213008E-2,4.6453644E-2,4.9970093E-1,-7.097878E-2,1.8664028E-2,-4.970923E-2,3.5787237E-1,2.2341095E-1,4.7739983E-2,-2.19991E-1,-2.8068782E-3,-9.831948E-2,-1.8242346E-2],"split_indices":[2,0,1,0,1,3,1,0,1,0,1,0,1,0,0,2,3,3,0,2,1,1,1,3,0,2,0,0,3,3,3,1,0,1,2,2,0,0,0,0,3,1,0,0,0,0,0,0,0,0,0,0,0,0,0,0,0,0,0,0,0,0,0,0,0,0,0,0,0],"split_type":[0,0,0,0,0,0,0,0,0,0,0,0,0,0,0,0,0,0,0,0,0,0,0,0,0,0,0,0,0,0,0,0,0,0,0,0,0,0,0,0,0,0,0,0,0,0,0,0,0,0,0,0,0,0,0,0,0,0,0,0,0,0,0,0,0,0,0,0,0],"sum_hessian":[1.542E3,1.504E3,3.8E1,1.394E3,1.1E2,3.4E1,4E0,1.192E3,2.02E2,9.7E1,1.3E1,6E0,2.8E1,2E0,2E0,1.174E3,1.8E1,1.8E2,2.2E1,8.9E1,8E0,4E0,9E0,2.7E1,1E0,1.129E3,4.5E1,3E0,1.5E1,8.3E1,9.7E1,1.5E1,7E0,2.7E1,6.2E1,5E0,3E0,2E0,2E0,2E0,7E0,8E0,1.9E1,1.034E3,9.5E1,4.3E1,2E0,5E0,1E1,4E0,7.9E1,1.2E1,8.5E1,1E0,1.4E1,4E0,3E0,2.5E1,2E0,2.2E1,4E1,4E0,1E0,5E0,2E0,6E0,2E0,8E0,1.1E1],"tree_param":{"num_deleted":"0","num_feature":"4","num_nodes":"69","size_leaf_vector":"1"}},{"base_weights":[1.1011059E-2,-1.8089426E-1,2.2323025E-2,4.0323845E-1,-2.630596E-1,1.433167E-1,-1.5025986E-2,9.032341E-1,-1.1506796E-2,8.463785E-2,-3.3615014E-1,2.5172183E-2,9.6974295E-1,-4.8704073E-1,1.1738011E-3,3.762085E-1,3.3875453E-1,7.443795E-2,-2.682634E-1,7.015894E-1,-2.3230171E-1,-4.2657614E-1,-1.6034071E-1,1.2174E-1,-4.639644E-1,2.0304847E0,-4.092312E-2,-1.1865373E0,5.0520706E-1,1.7632958E0,-1.0322963E-2,1.7373927E-1,-4.4454397E-3,-1.045449E-1,-4.140687E-3,-2.7323449E-2,9.225258E-1,-1.1798115E-1,-5.944409E-2,-3.2319546E-1,-2.6476204E-1,8.281437E-1,-4.120292E-1,2.915449E-2,3.3712945E0,1.0278635E0,-6.90756E-1,3.5735564E0,-4.24006E-1,1.0485277E0,-8.1617916E-1,-1.7492973E0,-5.717958E-1,1.0386999E0,7.724314E-2,3.772114E0,-6.863464E-1,-7.8558785E-1,3.6489386E-3,3.1964093E-1,7.4054115E-2,-6.134786E-2,3.1392719E-3,-1.9784808E-2,-1.5384978E-1,4.857946E-2,3.654924E-1,-1.637743E-1,6.795553E-2,-1.1896993E-2,1.6433756E-1,-3.5028386E-1,2.1202135E0,5.354129E-1,4.215449E-3,6.826872E-2,-2.9026282E-1,-4.658807E-1,1.5800394E0,-1.8018149E-1,3.8818076E-2,5.333208E-2,9.063088E-1,-2.9585746E-1,2.0909716E-1,5.193272E-2,-5.8765465E-1,1.0840857E-1,-3.8698807E-1,-4.731382E-2,2.2884001E-1,-3.102092E-1,1.7156519E0,4.133202E-2,-3.0209324E-1,-2.921364E-1,4.908287E-2,1.4485046E-1,-5.9014736E-3],"categories":[],"categories_nodes":[],"categories_segments":[],"categories_sizes":[],"default_left":[0,0,0,0,0,0,0,0,0,0,0,0,0,0,0,0,0,0,0,0,0,0,0,0,0,0,0,0,0,0,0,0,0,0,0,0,0,0,0,0,0,0,0,0,0,0,0,0,0,0,0,0,0,0,0,0,0,0,0,0,0,0,0,0,0,0,0,0,0,0,0,0,0,0,0,0,0,0,0,0,0,0,0,0,0,0,0,0,0,0,0,0,0,0,0,0,0,0,0],"id":12,"left_children":[1,3,5,7,9,11,13,15,17,19,21,23,25,27,29,31,-1,-1,33,35,37,39,41,43,45,47,49,51,53,55,57,-1,-1,-1,-1,-1,59,-1,61,63,-1,65,67,69,71,73,75,77,79,81,83,85,87,-1,89,91,93,95,97,-1,-1,-1,-1,-1,-1,-1,-1,-1,-1,-1,-1,-1,-1,-1,-1,-1,-1,-1,-1,-1,-1,-1,-1,-1,-1,-1,-1,-1,-1,-1,-1,-1,-1,-1,-1,-1,-1,-1,-1],"loss_changes":[3.3536227E0,4.2336855E0,6.5908475E0,2.291473E0,1.9598689E0,3.3562973E1,8.526463E0,1.7059278E-1,5.332012E-1,2.9004893E0,9.331603E-1,1.4321408E1,4.618149E1,2.6280178E1,2.1877342E1,2.4662581E-1,0E0,0E0,7.6841205E-2,9.596677E-1,2.5486928E-1,1.6474199E0,6.0633926E0,7.601971E1,1.7626705E1,8.105174E1,2.0281662E1,6.6107025E0,1.9981247E1,3.703518E1,1.1625522E1,0E0,0E0,0E0,0E0,0E0,1.2332845E-1,0E0,6.298057E-2,1.6735985E0,0E0,1.1023784E0,1.7480075E0,8.836666E0,1.25685234E2,5.3460207E0,1.1404018E1,1.2102402E2,9.5728254E-1,1.6638578E1,4.288971E0,4.7703705E0,8.50807E0,0E0,2.5364373E0,4.333842E1,1.195688E0,3.553463E0,1.1798981E1,0E0,0E0,0E0,0E0,0E0,0E0,0E0,0E0,0E0,0E0,0E0,0E0,0E0,0E0,0E0,0E0,0E0,0E0,0E0,0E0,0E0,0E0,0E0,0E0,0E0,0E0,0E0,0E0,0E0,0E0,0E0,0E0,0E0,0E0,0E0,0E0,0E0,0E0,0E0,0E0],"parents":[2147483647,0,0,1,1,2,2,3,3,4,4,5,5,6,6,7,7,8,8,9,9,10,10,11,11,12,12,13,13,14,14,15,15,18,18,19,19,20,20,21,21,22,22,23,23,24,24,25,25,26,26,27,27,28,28,29,29,30,30,36,36,38,38,39,39,41,41,42,42,43,43,44,44,45,45,46,46,47,47,48,48,49,49,50,50,51,51,52,52,54,54,55,55,56,56,57,57,58,58],"right_children":[2,4,6,8,10,12,14,16,18,20,22,24,26,28,30,32,-1,-1,34,36,38,40,42,44,46,48,50,52,54,56,58,-1,-1,-1,-1,-1,60,-1,62,64,-1,66,68,70,72,74,76,78,80,82,84,86,88,-1,90,92,94,96,98,-1,-1,-1,-1,-1,-1,-1,-1,-1,-1,-1,-1,-1,-1,-1,-1,-1,-1,-1,-1,-1,-1,-1,-1,-1,-1,-1,-1,-1,-1,-1,-1,-1,-1,-1,-1,-1,-1,-1,-1],"split_conditions":[3.450859E1,1.0365251E1,1.6292143E2,1.3273302E1,-2.9835002E0,1.5238425E2,1.7175021E2,6E-1,2E-1,7.4207864E0,1.7709658E1,1.374943E2,7E-1,1.4039416E1,1.7280525E2,1.0915E0,3.3875453E-1,7.443795E-2,1.2E0,-1.0468915E1,-6.025166E0,1.5012332E1,1.9164719E1,1.3640907E2,9.793058E0,9.44775E0,1.5711313E2,1.6171976E1,1.4301915E1,1.9000002E0,1.7765594E2,1.7373927E-1,-4.4454397E-3,-1.045449E-1,-4.140687E-3,-2.7323449E-2,2.1129885E1,-1.1798115E-1,1.1592895E1,1E-1,-2.6476204E-1,2.3602502E0,2.9633558E1,7.499999E0,5.2852497E0,1.5526916E1,3.8998337E0,1.1298495E1,2.0549833E1,2.2127556E1,8.5E0,9.449572E0,5E-1,1.0386999E0,2.7E0,7E-1,4.445667E0,1.6470667E1,1.872901E2,3.1964093E-1,7.4054115E-2,-6.134786E-2,3.1392719E-3,-1.9784808E-2,-1.5384978E-1,4.857946E-2,3.654924E-1,-1.637743E-1,6.795553E-2,-1.1896993E-2,1.6433756E-1,-3.5028386E-1,2.1202135E0,5.354129E-1,4.215449E-3,6.826872E-2,-2.9026282E-1,-4.658807E-1,1.5800394E0,-1.8018149E-1,3.8818076E-2,5.333208E-2,9.063088E-1,-2.9585746E-1,2.0909716E-1,5.193272E-2,-5.8765465E-1,1.0840857E-1,-3.8698807E-1,-4.731382E-2,2.2884001E-1,-3.102092E-1,1.7156519E0,4.133202E-2,-3.0209324E-1,-2.921364E-1,4.908287E-2,1.4485046E-1,-5.9014736E-3],"split_indices":[3,2,3,3,0,3,3,1,1,3,2,3,1,0,3,0,0,0,1,0,0,0,2,3,2,0,3,2,0,1,3,0,0,0,0,0,2,0,2,1,0,0,3,1,0,0,0,2,0,2,1,2,1,0,1,1,0,0,3,0,0,0,0,0,0,0,0,0,0,0,0,0,0,0,0,0,0,0,0,0,0,0,0,0,0,0,0,0,0,0,0,0,0,0,0,0,0,0,0],"split_type":[0,0,0,0,0,0,0,0,0,0,0,0,0,0,0,0,0,0,0,0,0,0,0,0,0,0,0,0,0,0,0,0,0,0,0,0,0,0,0,0,0,0,0,0,0,0,0,0,0,0,0,0,0,0,0,0,0,0,0,0,0,0,0,0,0,0,0,0,0,0,0,0,0,0,0,0,0,0,0,0,0,0,0,0,0,0,0,0,0,0,0,0,0,0,0,0,0,0,0],"sum_hessian":[1.542E3,8.5E1,1.457E3,1E1,7.5E1,3.43E2,1.114E3,4E0,6E0,1.3E1,6.2E1,3.01E2,4.2E1,3.6E1,1.078E3,2E0,2E0,3E0,3E0,4E0,9E0,4E1,2.2E1,2.52E2,4.9E1,2E1,2.2E1,2.1E1,1.5E1,6E0,1.072E3,1E0,1E0,2E0,1E0,1E0,3E0,4E0,5E0,3.4E1,6E0,4E0,1.8E1,2.46E2,6E0,6E0,4.3E1,1.2E1,8E0,9E0,1.3E1,1E1,1.1E1,1E0,1.4E1,3E0,3E0,1.8E1,1.054E3,2E0,1E0,1E0,4E0,1.5E1,1.9E1,2E0,2E0,1.5E1,3E0,2.18E2,2.8E1,3E0,3E0,3E0,3E0,1E1,3.3E1,3E0,9E0,6E0,2E0,7E0,2E0,1.2E1,1E0,1E0,9E0,5E0,6E0,1.1E1,3E0,1E0,2E0,1E0,2E0,1.5E1,3E0,4.8E1,1.006E3],"tree_param":{"num_deleted":"0","num_feature":"4","num_nodes":"99","size_leaf_vector":"1"}},{"base_weights":[1.1645561E-2,3.4732616E-3,2.506573E-1,4.4384062E-2,-4.7532044E-2,1.3631333E-1,5.744078E-1,7.184864E-3,5.0445825E-1,-4.9324188E-1,-2.5698127E-2,-1.3292553E-1,3.987365E-1,1.0135857E0,1.7322338E-1,4.7460962E-2,-2.2669396E-1,1.3160464E0,-7.9154065E-3,-1.9482987E-1,-9.4949174E-1,1.4126097E-1,-6.608334E-2,6.534036E-1,-2.565956E-1,4.824072E-1,-7.085994E-2,4.389749E-1,7.617203E-2,-2.7961558E-1,5.0084984E-1,-1.3974863E-2,2.9377994E-1,-3.4361583E-1,9.366763E-2,3.1054344E0,-1.8390468E-1,-9.0946984E-1,4.2645952E-1,-4.526144E-1,-7.872741E-2,-1.2965947E0,-2.0422862E-1,-3.1222567E-2,2.1106956E0,-1.0000869E-1,2.064788E-1,-1.4570833E-3,2.9548872E-1,-6.9551155E-2,-4.8170733E-1,-2.1685688E-1,5.833688E-1,-5.193079E-2,8.62082E-2,-2.1606768E-2,-9.7441725E-2,5.8257866E-1,2.6090207E-2,1.4696735E-2,-4.828056E-2,1.9730413E-1,-1.2820407E-2,-1.7594361E-1,-3.450658E-2,5.536329E-1,-7.871896E-3,1.5015538E0,-5.2588455E-2,2.3924125E-2,-8.920203E-2,-3.1610993E-1,1.23193435E-1,-2.2815954E-2,3.8650092E-1,1.2985635E-2,-2.1341571E-1,2.2234097E-1,-5.7068236E-2,-5.2054375E-1,-1.2727717E-1,-1.9188836E-2,-1.147938E-1,-1.5473518E-1,2.8657237E-2,8.683199E-1,6.3461855E-2,-1.3814773E-1,-1.1020936E-2,9.1012836E-1,-1.924253E-2,-1.0170884E-1,8.400854E-3,2.6120998E-2,-2.0574343E-1,-9.9300176E-2,1.7145753E-3,2.2418767E-1,5.5684306E-2,4.4067122E-2,2.036534E-1],"categories":[],"categories_nodes":[],"categories_segments":[],"categories_sizes":[],"default_left":[0,0,0,0,0,0,0,0,0,0,0,0,0,0,0,0,0,0,0,0,0,0,0,0,0,0,0,0,0,0,0,0,0,0,0,0,0,0,0,0,0,0,0,0,0,0,0,0,0,0,0,0,0,0,0,0,0,0,0,0,0,0,0,0,0,0,0,0,0,0,0,0,0,0,0,0,0,0,0,0,0,0,0,0,0,0,0,0,0,0,0,0,0,0,0,0,0,0,0,0,0],"id":13,"left_children":[1,3,5,7,9,11,13,15,17,19,21,23,25,27,29,31,33,35,37,39,41,43,45,47,49,51,-1,-1,53,55,57,59,61,63,65,67,69,71,73,75,77,79,81,83,85,87,89,-1,-1,91,93,95,97,-1,-1,-1,-1,99,-1,-1,-1,-1,-1,-1,-1,-1,-1,-1,-1,-1,-1,-1,-1,-1,-1,-1,-1,-1,-1,-1,-1,-1,-1,-1,-1,-1,-1,-1,-1,-1,-1,-1,-1,-1,-1,-1,-1,-1,-1,-1,-1],"loss_changes":[3.0130332E0,3.1175048E0,1.8096654E0,1.4184207E1,6.4588327E0,2.8085282E0,2.114911E0,7.2451096E0,2.5792274E1,4.035673E0,4.290936E0,2.1125684E0,1.1764557E0,2.417667E0,1.3269417E0,9.931229E0,4.2648573E0,6.498698E1,1.5660746E1,5.629552E-1,2.8393955E0,4.2188084E1,4.754994E0,6.5954006E-1,7.244028E-1,1.3972859E0,0E0,0E0,2.076748E-1,1.4131278E-2,1.18465304E-1,4.8750706E0,1.607008E1,4.54045E0,6.5599933E0,6.94354E1,4.4241625E-1,2.907897E0,1.1791792E1,8.0074036E-1,1.5122075E0,2.3243685E0,1.00654215E-1,7.112173E0,1.4271488E1,1.038381E1,4.3806473E1,0E0,0E0,2.9866934E-1,9.884316E-1,7.810736E-2,9.045119E-1,0E0,0E0,0E0,0E0,6.8051934E-2,0E0,0E0,0E0,0E0,0E0,0E0,0E0,0E0,0E0,0E0,0E0,0E0,0E0,0E0,0E0,0E0,0E0,0E0,0E0,0E0,0E0,0E0,0E0,0E0,0E0,0E0,0E0,0E0,0E0,0E0,0E0,0E0,0E0,0E0,0E0,0E0,0E0,0E0,0E0,0E0,0E0,0E0,0E0],"parents":[2147483647,0,0,1,1,2,2,3,3,4,4,5,5,6,6,7,7,8,8,9,9,10,10,11,11,12,12,13,13,14,14,15,15,16,16,17,17,18,18,19,19,20,20,21,21,22,22,23,23,24,24,25,25,28,28,29,29,30,30,31,31,32,32,33,33,34,34,35,35,36,36,37,37,38,38,39,39,40,40,41,41,42,42,43,43,44,44,45,45,46,46,49,49,50,50,51,51,52,52,57,57],"right_children":[2,4,6,8,10,12,14,16,18,20,22,24,26,28,30,32,34,36,38,40,42,44,46,48,50,52,-1,-1,54,56,58,60,62,64,66,68,70,72,74,76,78,80,82,84,86,88,90,-1,-1,92,94,96,98,-1,-1,-1,-1,100,-1,-1,-1,-1,-1,-1,-1,-1,-1,-1,-1,-1,-1,-1,-1,-1,-1,-1,-1,-1,-1,-1,-1,-1,-1,-1,-1,-1,-1,-1,-1,-1,-1,-1,-1,-1,-1,-1,-1,-1,-1,-1,-1],"split_conditions":[2.0549833E1,1.7727943E1,1.8E1,1.7294992E1,1.803237E1,1E-1,1.8782204E1,1.6363178E1,1E-1,1.8E1,1.5711313E2,2.0714417E1,1.7072504E1,1.4857056E2,1.4046825E2,1.5349684E1,2.8030478E2,2.0619711E2,1.8149202E2,1.17147835E2,2.3059314E2,1.4650656E2,6.0000005E0,1.2287555E1,1.4578888E1,1.0086427E1,-7.085994E-2,4.389749E-1,1E-1,9.000001E-1,1.9127711E2,1.4118243E1,6.531084E0,1.6831684E1,2.8769757E2,8.826917E0,5.3524995E-1,1.6470667E1,8.000001E-1,-2.5335E0,1.2606051E2,9.020666E0,2.8206666E0,1E-1,3.7999997E0,2.0278473E2,6.4999986E0,-1.4570833E-3,2.9548872E-1,2.0881086E1,1.7908336E2,2.0881086E1,1.4000001E0,-5.193079E-2,8.62082E-2,-2.1606768E-2,-9.7441725E-2,2.0881086E1,2.6090207E-2,1.4696735E-2,-4.828056E-2,1.9730413E-1,-1.2820407E-2,-1.7594361E-1,-3.450658E-2,5.536329E-1,-7.871896E-3,1.5015538E0,-5.2588455E-2,2.3924125E-2,-8.920203E-2,-3.1610993E-1,1.23193435E-1,-2.2815954E-2,3.8650092E-1,1.2985635E-2,-2.1341571E-1,2.2234097E-1,-5.7068236E-2,-5.2054375E-1,-1.2727717E-1,-1.9188836E-2,-1.147938E-1,-1.5473518E-1,2.8657237E-2,8.683199E-1,6.3461855E-2,-1.3814773E-1,-1.1020936E-2,9.1012836E-1,-1.924253E-2,-1.0170884E-1,8.400854E-3,2.6120998E-2,-2.0574343E-1,-9.9300176E-2,1.7145753E-3,2.2418767E-1,5.5684306E-2,4.4067122E-2,2.036534E-1],"split_indices":[0,2,2,2,2,1,2,2,1,2,3,0,2,3,3,2,3,3,3,3,3,3,1,2,2,2,0,0,1,1,3,2,0,2,3,0,0,0,1,0,3,0,0,1,1,3,1,0,0,0,3,0,1,0,0,0,0,0,0,0,0,0,0,0,0,0,0,0,0,0,0,0,0,0,0,0,0,0,0,0,0,0,0,0,0,0,0,0,0,0,0,0,0,0,0,0,0,0,0,0,0],"split_type":[0,0,0,0,0,0,0,0,0,0,0,0,0,0,0,0,0,0,0,0,0,0,0,0,0,0,0,0,0,0,0,0,0,0,0,0,0,0,0,0,0,0,0,0,0,0,0,0,0,0,0,0,0,0,0,0,0,0,0,0,0,0,0,0,0,0,0,0,0,0,0,0,0,0,0,0,0,0,0,0,0,0,0,0,0,0,0,0,0,0,0,0,0,0,0,0,0,0,0,0,0],"sum_hessian":[1.542E3,1.492E3,5E1,8.28E2,6.64E2,3.8E1,1.2E1,7.67E2,6.1E1,3E1,6.34E2,1.9E1,1.9E1,5E0,7E0,6.55E2,1.12E2,2.3E1,3.8E1,1.9E1,1.1E1,1.23E2,5.11E2,2E0,1.7E1,1.7E1,2E0,3E0,2E0,3E0,4E0,5.25E2,1.3E2,8.2E1,3E1,1E1,1.3E1,1.2E1,2.6E1,5E0,1.4E1,7E0,4E0,1.14E2,9E0,4.55E2,5.6E1,1E0,1E0,1E1,7E0,2E0,1.5E1,1E0,1E0,1E0,2E0,3E0,1E0,3.68E2,1.57E2,6.2E1,6.8E1,3.9E1,4.3E1,1E0,2.9E1,6E0,4E0,4E0,9E0,1.1E1,1E0,1.7E1,9E0,2E0,3E0,1E0,1.3E1,4E0,3E0,3E0,1E0,2.3E1,9.1E1,6E0,3E0,6.7E1,3.88E2,4E0,5.2E1,2E0,8E0,2E0,5E0,1E0,1E0,1E1,5E0,1E0,2E0],"tree_param":{"num_deleted":"0","num_feature":"4","num_nodes":"101","size_leaf_vector":"1"}},{"base_weights":[1.0440711E-2,3.429E-2,-6.553045E-2,-1.2946008E-1,5.1155124E-2,-1.417019E-1,9.6966734E-4,5.817351E-1,-2.0639695E-1,4.8509422E-1,3.8552105E-2,1.9289035E-1,-1.6135971E-1,1.4777908E-1,-6.240828E-2,2.2175962E-1,3.4687567E-1,1.367477E-2,-3.7265587E-1,2.6379528E0,-1.6303515E-1,-9.531824E-2,7.47171E-2,-2.106191E-1,5.043868E-1,-1.9125153E-1,1.1293191E-2,-2.6697186E-1,2.6817766E-1,1.6823353E-1,-9.3778215E-2,3.678341E-1,-1.627338E-2,-6.5825365E-2,8.251324E-1,-6.251069E-1,-2.4514277E-2,3.5075762E0,9.277894E-2,1.1109788E-1,-7.2518843E-1,-2.0372787E-1,2.7951723E-1,1.1197026E0,6.038059E-2,9.573993E-1,4.109945E-2,-4.505341E-2,-2.293851E-1,-9.6829414E-2,2.1937355E-1,-3.0804175E-1,4.004052E-2,6.179608E-1,8.75478E-3,5.735745E-1,4.0405147E-2,-2.94526E-1,-5.193859E-2,5.72863E-2,1.6130298E-1,1.2424613E-2,-2.8400946E-2,2.8603412E-3,-1.1336295E-1,4.4202685E-2,4.2877546E-1,-3.4480155E-1,-8.124467E-2,7.67036E-2,-9.084645E-2,-8.199953E-2,1.3563409E0,-1.0873605E-1,1.4364877E-1,-3.1615597E-1,-9.516569E-2,7.79037E-2,-9.979777E-2,3.7868294E-1,2.7053373E-2,-2.6061514E-1,8.764516E-1,-4.6865977E-2,2.8436536E-2,3.7185428E-1,1.6658165E-2,3.6288217E-2,-4.175184E-2,-4.9687438E-2,2.3402E-1,2.3502808E-2,-8.143038E-2,1.487871E-1,2.5754798E-2,-8.354795E-3,-9.87211E-2,9.3514614E-2,4.4230625E-1,4.3401256E-2,-8.82761E-2,2.6140934E-1,-4.7969308E-2,-1.8837325E-2,7.161497E-2,-1.0108273E-1,8.307031E-2,8.467189E-3,-5.870822E-2],"categories":[],"categories_nodes":[],"categories_segments":[],"categories_sizes":[],"default_left":[0,0,0,0,0,0,0,0,0,0,0,0,0,0,0,0,0,0,0,0,0,0,0,0,0,0,0,0,0,0,0,0,0,0,0,0,0,0,0,0,0,0,0,0,0,0,0,0,0,0,0,0,0,0,0,0,0,0,0,0,0,0,0,0,0,0,0,0,0,0,0,0,0,0,0,0,0,0,0,0,0,0,0,0,0,0,0,0,0,0,0,0,0,0,0,0,0,0,0,0,0,0,0,0,0,0,0,0,0],"id":14,"left_children":[1,3,5,7,9,11,13,15,17,19,21,23,25,27,29,31,-1,33,35,37,39,41,43,-1,45,47,49,51,53,55,57,59,61,63,65,67,69,71,-1,73,75,77,79,81,83,85,87,89,91,-1,93,95,-1,97,99,101,103,105,107,-1,-1,-1,-1,-1,-1,-1,-1,-1,-1,-1,-1,-1,-1,-1,-1,-1,-1,-1,-1,-1,-1,-1,-1,-1,-1,-1,-1,-1,-1,-1,-1,-1,-1,-1,-1,-1,-1,-1,-1,-1,-1,-1,-1,-1,-1,-1,-1,-1,-1],"loss_changes":[2.7979443E0,3.2515793E0,1.869274E0,6.138952E0,5.8111906E0,1.1624286E0,1.8515095E0,2.018523E0,3.6639848E0,4.229001E1,5.0276737E0,3.141862E0,8.433881E-1,3.0677218E0,1.0214721E0,2.8415024E-1,0E0,2.8927982E0,4.9943323E0,1.3090813E1,3.7790816E0,9.037451E0,1.2172228E1,0E0,1.6396511E0,7.6459837E-1,1.8085783E0,2.713583E-1,4.259453E0,8.5766405E-1,1.0178062E0,4.753685E-2,2.2011155E-2,9.677638E-1,1.4272745E0,5.817856E0,2.026918E0,2.0396656E1,0E0,3.1339278E0,7.383795E-1,1.0362986E1,9.1899185E0,4.1948097E1,6.029184E0,9.4889927E-1,8.881828E-2,3.1137738E0,1.4446435E0,0E0,5.483119E-1,6.7432284E-2,0E0,4.7857523E0,1.195714E0,1.0130118E0,3.0149913E-1,6.0229516E-1,1.1924752E0,0E0,0E0,0E0,0E0,0E0,0E0,0E0,0E0,0E0,0E0,0E0,0E0,0E0,0E0,0E0,0E0,0E0,0E0,0E0,0E0,0E0,0E0,0E0,0E0,0E0,0E0,0E0,0E0,0E0,0E0,0E0,0E0,0E0,0E0,0E0,0E0,0E0,0E0,0E0,0E0,0E0,0E0,0E0,0E0,0E0,0E0,0E0,0E0,0E0,0E0],"parents":[2147483647,0,0,1,1,2,2,3,3,4,4,5,5,6,6,7,7,8,8,9,9,10,10,11,11,12,12,13,13,14,14,15,15,17,17,18,18,19,19,20,20,21,21,22,22,24,24,25,25,26,26,27,27,28,28,29,29,30,30,31,31,32,32,33,33,34,34,35,35,36,36,37,37,39,39,40,40,41,41,42,42,43,43,44,44,45,45,46,46,47,47,48,48,50,50,51,51,53,53,54,54,55,55,56,56,57,57,58,58],"right_children":[2,4,6,8,10,12,14,16,18,20,22,24,26,28,30,32,-1,34,36,38,40,42,44,-1,46,48,50,52,54,56,58,60,62,64,66,68,70,72,-1,74,76,78,80,82,84,86,88,90,92,-1,94,96,-1,98,100,102,104,106,108,-1,-1,-1,-1,-1,-1,-1,-1,-1,-1,-1,-1,-1,-1,-1,-1,-1,-1,-1,-1,-1,-1,-1,-1,-1,-1,-1,-1,-1,-1,-1,-1,-1,-1,-1,-1,-1,-1,-1,-1,-1,-1,-1,-1,-1,-1,-1,-1,-1,-1],"split_conditions":[2.764325E2,-9.314167E-1,1E-1,1.0787993E1,-1.7724998E-1,9.585739E0,1.5778516E1,1.0239453E1,7.3901115E1,1.3004922E1,1.35515E1,2.8769757E2,3.4005957E2,2.943516E2,-3.175167E0,1E-1,3.4687567E-1,5.4E0,2.300188E2,1.9543051E2,2.124305E1,1.7295666E1,1.3684735E1,-2.106191E-1,3.2355542E2,2.8769757E2,1.5827721E1,1.7868586E1,3.2659213E2,1.6946787E1,1.6946787E1,-4.8980837E0,-2.18975E0,1.9000003E0,1.7873556E1,1.6299694E1,-4.0522504E0,2.2038551E1,9.277894E-2,1E-1,1.639867E2,2.4060833E0,1.7803999E1,1E-1,2.3602502E0,5.6664996E0,5.3524995E-1,2.850838E2,1.3281023E1,-9.6829414E-2,1.675064E1,-4.698084E0,4.004052E-2,3.2118436E2,9.81025E0,2E-1,2.3090569E1,3.4694473E2,2.2734219E1,5.72863E-2,1.6130298E-1,1.2424613E-2,-2.8400946E-2,2.8603412E-3,-1.1336295E-1,4.4202685E-2,4.2877546E-1,-3.4480155E-1,-8.124467E-2,7.67036E-2,-9.084645E-2,-8.199953E-2,1.3563409E0,-1.0873605E-1,1.4364877E-1,-3.1615597E-1,-9.516569E-2,7.79037E-2,-9.979777E-2,3.7868294E-1,2.7053373E-2,-2.6061514E-1,8.764516E-1,-4.6865977E-2,2.8436536E-2,3.7185428E-1,1.6658165E-2,3.6288217E-2,-4.175184E-2,-4.9687438E-2,2.3402E-1,2.3502808E-2,-8.143038E-2,1.487871E-1,2.5754798E-2,-8.354795E-3,-9.87211E-2,9.3514614E-2,4.4230625E-1,4.3401256E-2,-8.82761E-2,2.6140934E-1,-4.7969308E-2,-1.8837325E-2,7.161497E-2,-1.0108273E-1,8.307031E-2,8.467189E-3,-5.870822E-2],"split_indices":[3,0,1,2,0,2,2,2,3,2,2,3,3,3,0,1,0,1,3,3,2,0,2,0,3,3,2,0,3,2,2,0,0,1,2,2,0,3,0,1,3,0,0,1,0,0,0,3,2,0,2,0,0,3,0,1,2,3,2,0,0,0,0,0,0,0,0,0,0,0,0,0,0,0,0,0,0,0,0,0,0,0,0,0,0,0,0,0,0,0,0,0,0,0,0,0,0,0,0,0,0,0,0,0,0,0,0,0,0],"split_type":[0,0,0,0,0,0,0,0,0,0,0,0,0,0,0,0,0,0,0,0,0,0,0,0,0,0,0,0,0,0,0,0,0,0,0,0,0,0,0,0,0,0,0,0,0,0,0,0,0,0,0,0,0,0,0,0,0,0,0,0,0,0,0,0,0,0,0,0,0,0,0,0,0,0,0,0,0,0,0,0,0,0,0,0,0,0,0,0,0,0,0,0,0,0,0,0,0,0,0,0,0,0,0,0,0,0,0,0,0],"sum_hessian":[1.542E3,1.174E3,3.68E2,1.09E2,1.065E3,1.71E2,1.97E2,1E1,9.9E1,2.9E1,1.036E3,9E0,1.62E2,5.9E1,1.38E2,7E0,3E0,4.3E1,5.6E1,6E0,2.3E1,2.2E2,8.16E2,2E0,7E0,1.38E2,2.4E1,1.3E1,4.6E1,1.6E1,1.22E2,4E0,3E0,4E1,3E0,3.2E1,2.4E1,4E0,2E0,1.6E1,7E0,1.71E2,4.9E1,1E1,8.06E2,3E0,4E0,2.9E1,1.09E2,9E0,1.5E1,1.2E1,1E0,1.9E1,2.7E1,3E0,1.3E1,2E1,1.02E2,3E0,1E0,2E0,1E0,3.3E1,7E0,2E0,1E0,1.2E1,2E1,1.2E1,1.2E1,1E0,3E0,7E0,9E0,3E0,4E0,3.7E1,1.34E2,7E0,4.2E1,5E0,5E0,1.1E2,6.96E2,2E0,1E0,3E0,1E0,2.6E1,3E0,1.3E1,9.6E1,4E0,1.1E1,1E0,1.1E1,1.5E1,4E0,1.9E1,8E0,2E0,1E0,9E0,4E0,1.9E1,1E0,6.6E1,3.6E1],"tree_param":{"num_deleted":"0","num_feature":"4","num_nodes":"109","size_leaf_vector":"1"}},{"base_weights":[9.539326E-3,-1.17509685E-1,2.0432744E-2,5.9638467E-2,-2.4559693E-1,2.2110559E-1,9.5664095E-3,-3.5656632E-3,4.924574E-1,-7.479731E-1,-1.8771647E-1,-2.1904398E-2,6.8856096E-1,3.6587678E-2,-7.0495315E-2,4.0797877E-1,-5.7167858E-2,-2.6399565E-1,-8.3588436E-2,2.1370304E-1,-2.4780522E-1,4.187454E-1,-1.0531616E-1,1.5199299E0,2.0792091E-1,2.030016E-2,9.8677635E-1,-2.639697E-1,8.102369E-2,2.832502E-1,-9.615737E-2,-4.3423963E-1,2.1646036E-2,3.522459E-1,-1.34196E-1,-3.5078785E-1,-6.8024315E-2,9.3274035E-2,2.790319E-1,3.798581E-1,-1.9673015E-1,2.573213E0,1.6266058E-1,4.5313537E-3,5.193231E-1,-1.2927708E-2,2.432074E-1,3.282301E0,2.7976375E-2,-3.46321E-1,2.0581025E-1,9.5984197E-1,3.759767E-2,1.2730001E-1,-1.2332962E-1,-6.496314E-2,-1.7933986E-1,2.086512E-1,-4.316941E-3,3.9030965E-2,1.6255884E-1,-3.5868704E-2,-1.6541433E-1,-9.6488215E-2,8.053863E-2,-3.011216E-2,4.562352E-2,-8.119082E-2,4.012187E-1,-1.1650661E-1,-1.4508832E-3,2.3520914E-1,1.0513974E0,-1.3682756E-1,2.1815786E-1,-7.776499E-2,1.1420004E-1,-7.6263584E-2,4.615164E-3,1.1276581E-1,-1.3711177E-1,3.2156107E-1,1.3195895E0,4.033677E-1,-5.8135625E-2,2.980525E-1,-1.1264194E-1,-1.6927807E-2,5.918582E-1,1.066517E0,5.7317413E-2,4.72925E-2,-7.404788E-2],"categories":[],"categories_nodes":[],"categories_segments":[],"categories_sizes":[],"default_left":[0,0,0,0,0,0,0,0,0,0,0,0,0,0,0,0,0,0,0,0,0,0,0,0,0,0,0,0,0,0,0,0,0,0,0,0,0,0,0,0,0,0,0,0,0,0,0,0,0,0,0,0,0,0,0,0,0,0,0,0,0,0,0,0,0,0,0,0,0,0,0,0,0,0,0,0,0,0,0,0,0,0,0,0,0,0,0,0,0,0,0,0,0],"id":15,"left_children":[1,3,5,7,9,11,13,15,-1,17,19,21,23,25,27,29,31,-1,-1,33,35,37,39,41,43,45,47,49,51,-1,53,55,57,59,-1,61,63,65,-1,67,69,71,73,75,-1,77,79,81,83,85,87,89,91,-1,-1,-1,-1,-1,-1,-1,-1,-1,-1,-1,-1,-1,-1,-1,-1,-1,-1,-1,-1,-1,-1,-1,-1,-1,-1,-1,-1,-1,-1,-1,-1,-1,-1,-1,-1,-1,-1,-1,-1],"loss_changes":[2.1379097E0,2.7828782E0,3.0986671E0,5.2049036E0,1.9241142E0,8.307614E0,2.923128E0,1.1483673E0,0E0,1.885271E-1,1.6208086E0,1.8451141E0,9.673702E0,1.5610947E1,1.0017818E1,1.712661E0,1.3764503E0,0E0,0E0,9.8178685E-1,1.0314536E0,1.2447119E0,1.9375017E0,1.2447742E1,5.2586546E0,7.3654356E0,3.7324306E1,5.8743258E0,7.2913194E0,0E0,8.3013904E-1,1.5540051E-1,9.5704657E-1,2.6647788E-1,0E0,1.6038375E0,1.9636923E0,8.3588734E-2,0E0,4.7220554E0,1.321903E0,5.5848694E0,2.078195E0,1.6859543E0,0E0,5.919677E0,1.2156895E1,7.623089E0,4.056136E0,5.372569E0,1.0769169E1,1.727721E1,6.321293E0,0E0,0E0,0E0,0E0,0E0,0E0,0E0,0E0,0E0,0E0,0E0,0E0,0E0,0E0,0E0,0E0,0E0,0E0,0E0,0E0,0E0,0E0,0E0,0E0,0E0,0E0,0E0,0E0,0E0,0E0,0E0,0E0,0E0,0E0,0E0,0E0,0E0,0E0,0E0,0E0],"parents":[2147483647,0,0,1,1,2,2,3,3,4,4,5,5,6,6,7,7,9,9,10,10,11,11,12,12,13,13,14,14,15,15,16,16,19,19,20,20,21,21,22,22,23,23,24,24,25,25,26,26,27,27,28,28,30,30,31,31,32,32,33,33,35,35,36,36,37,37,39,39,40,40,41,41,42,42,43,43,45,45,46,46,47,47,48,48,49,49,50,50,51,51,52,52],"right_children":[2,4,6,8,10,12,14,16,-1,18,20,22,24,26,28,30,32,-1,-1,34,36,38,40,42,44,46,48,50,52,-1,54,56,58,60,-1,62,64,66,-1,68,70,72,74,76,-1,78,80,82,84,86,88,90,92,-1,-1,-1,-1,-1,-1,-1,-1,-1,-1,-1,-1,-1,-1,-1,-1,-1,-1,-1,-1,-1,-1,-1,-1,-1,-1,-1,-1,-1,-1,-1,-1,-1,-1,-1,-1,-1,-1,-1,-1],"split_conditions":[4.4470886E1,1.4706668E0,7.3901115E1,1.2040001E0,2.0748334E0,1.2218582E1,2.1E0,1.0787993E1,4.924574E-1,9.000001E-1,1.0365251E1,1.0365251E1,1.50998335E1,1.9000001E0,4.3E0,2E-1,1.2181625E1,-2.6399565E-1,-8.3588436E-2,1.4039416E1,1.4412334E1,1.9000001E0,-2.4022498E0,3E-1,7.499999E0,9.0000004E-1,2.1360359E2,2.5922499E1,1.1298495E1,2.832502E-1,-9.314167E-1,1.1874544E1,1.224E1,1.0086427E1,-1.34196E-1,5.826917E0,1.6831684E1,-5.231416E0,2.790319E-1,-3.175167E0,4.099833E0,1.4039416E1,1.8000002E0,1.8162333E1,5.193231E-1,1.4650656E2,1.6000001E0,1.4689589E1,1.5629971E1,7.575806E1,3.7000003E0,-3.5224995E-1,9.700001E0,1.2730001E-1,-1.2332962E-1,-6.496314E-2,-1.7933986E-1,2.086512E-1,-4.316941E-3,3.9030965E-2,1.6255884E-1,-3.5868704E-2,-1.6541433E-1,-9.6488215E-2,8.053863E-2,-3.011216E-2,4.562352E-2,-8.119082E-2,4.012187E-1,-1.1650661E-1,-1.4508832E-3,2.3520914E-1,1.0513974E0,-1.3682756E-1,2.1815786E-1,-7.776499E-2,1.1420004E-1,-7.6263584E-2,4.615164E-3,1.1276581E-1,-1.3711177E-1,3.2156107E-1,1.3195895E0,4.033677E-1,-5.8135625E-2,2.980525E-1,-1.1264194E-1,-1.6927807E-2,5.918582E-1,1.066517E0,5.7317413E-2,4.72925E-2,-7.404788E-2],"split_indices":[3,0,3,0,0,0,1,2,0,1,2,2,0,1,1,1,2,0,0,0,0,1,0,1,1,1,3,2,2,0,0,2,2,2,0,0,2,0,0,0,0,0,1,0,0,3,1,2,2,3,1,0,1,0,0,0,0,0,0,0,0,0,0,0,0,0,0,0,0,0,0,0,0,0,0,0,0,0,0,0,0,0,0,0,0,0,0,0,0,0,0,0,0],"split_type":[0,0,0,0,0,0,0,0,0,0,0,0,0,0,0,0,0,0,0,0,0,0,0,0,0,0,0,0,0,0,0,0,0,0,0,0,0,0,0,0,0,0,0,0,0,0,0,0,0,0,0,0,0,0,0,0,0,0,0,0,0,0,0,0,0,0,0,0,0,0,0,0,0,0,0,0,0,0,0,0,0,0,0,0,0,0,0,0,0,0,0,0,0],"sum_hessian":[1.542E3,1.21E2,1.421E3,5.1E1,7E1,7.2E1,1.349E3,5E1,1E0,6E0,6.4E1,4.8E1,2.4E1,1.009E3,3.4E2,5E0,4.5E1,4E0,2E0,8E0,5.6E1,7E0,4.1E1,8E0,1.6E1,9.93E2,1.6E1,1.49E2,1.91E2,2E0,3E0,7E0,3.8E1,7E0,1E0,3.5E1,2.1E1,5E0,2E0,6E0,3.5E1,4E0,4E0,1.5E1,1E0,8.65E2,1.28E2,4E0,1.2E1,1.27E2,2.2E1,8E0,1.83E2,1E0,2E0,4E0,3E0,1E0,3.7E1,4E0,3E0,1.7E1,1.8E1,1.2E1,9E0,1E0,4E0,4E0,2E0,1.7E1,1.8E1,2E0,2E0,2E0,2E0,9E0,6E0,9E1,7.75E2,1.08E2,2E1,2E0,2E0,1E0,1.1E1,2E0,1.25E2,2E1,2E0,1E0,7E0,1.29E2,5.4E1],"tree_param":{"num_deleted":"0","num_feature":"4","num_nodes":"93","size_leaf_vector":"1"}},{"base_weights":[1.0832042E-2,1.8086124E-2,-2.0174001E-1,1.2846261E-2,1.128599E0,-2.9274368E-1,2.554709E-1,5.9462607E-2,-1.3720905E-2,1.8263817E-2,7.808874E-1,-5.401403E-1,-1.4091909E-1,6.2271786E-1,-3.5926726E-1,1.5982797E-2,5.15198E-1,-5.7111865E-1,1.3856425E-4,1.3912456E-1,-1.0868486E-1,9.924849E-3,-1.8582898E-1,-1.062466E-1,-1.6156143E-1,1.2781262E-1,2.514652E-1,8.730448E-3,-1.495272E-1,5.5079203E-2,-3.4843546E-1,-1.1141161E0,9.856644E-1,2.0581224E0,-9.1952837E-1,6.390524E-1,-7.5341333E-3,7.9193115E-3,5.468674E-2,-4.1306414E-2,-7.601774E-3,9.5589824E-2,-9.112364E-2,-1.7687748E-1,2.3990476E-1,1.0057161E-1,-4.305593E-2,-9.817529E-4,1.00653924E-1,3.609675E-1,-1.4358535E-1,8.814994E-2,-3.8528833E-1,1.4442815E-1,8.260039E-1,8.627432E-1,6.341193E-2,-4.1467726E-1,1.5565798E-3,-1.253421E-1,7.779024E-1,3.9885775E-3,-3.2035988E-2,-1.3884393E-2,-6.933622E-2,1.0097728E-1,-2.202598E-2],"categories":[],"categories_nodes":[],"categories_segments":[],"categories_sizes":[],"default_left":[0,0,0,0,0,0,0,0,0,0,0,0,0,0,0,0,0,0,0,0,0,0,0,0,0,0,0,0,0,0,0,0,0,0,0,0,0,0,0,0,0,0,0,0,0,0,0,0,0,0,0,0,0,0,0,0,0,0,0,0,0,0,0,0,0,0,0],"id":16,"left_children":[1,3,5,7,9,11,13,15,17,19,-1,21,23,25,27,29,31,33,35,37,39,41,-1,43,-1,45,-1,-1,-1,47,49,51,53,55,57,59,61,-1,-1,-1,-1,-1,-1,63,65,-1,-1,-1,-1,-1,-1,-1,-1,-1,-1,-1,-1,-1,-1,-1,-1,-1,-1,-1,-1,-1,-1],"loss_changes":[2.3829777E0,8.673173E0,2.1967893E0,1.8424122E0,1.1411687E1,1.5390024E0,2.2555685E0,1.0692021E1,7.323604E0,9.183628E-2,0E0,7.03979E-1,3.2880253E-1,5.327761E-1,2.3068142E-1,7.05743E0,3.712541E1,2.2961727E1,4.5442452E0,9.785403E-3,3.7629567E-3,3.872807E-1,0E0,7.02556E-1,0E0,2.1695761E-1,0E0,0E0,0E0,7.315715E0,1.0271828E1,3.0129957E0,3.1653717E1,3.922326E0,8.992935E0,2.3798996E1,1.8951297E0,0E0,0E0,0E0,0E0,0E0,0E0,1.5223455E-1,1.7618328E-1,0E0,0E0,0E0,0E0,0E0,0E0,0E0,0E0,0E0,0E0,0E0,0E0,0E0,0E0,0E0,0E0,0E0,0E0,0E0,0E0,0E0,0E0],"parents":[2147483647,0,0,1,1,2,2,3,3,4,4,5,5,6,6,7,7,8,8,9,9,11,11,12,12,13,13,14,14,15,15,16,16,17,17,18,18,19,19,20,20,21,21,23,23,25,25,29,29,30,30,31,31,32,32,33,33,34,34,35,35,36,36,43,43,44,44],"right_children":[2,4,6,8,10,12,14,16,18,20,-1,22,24,26,28,30,32,34,36,38,40,42,-1,44,-1,46,-1,-1,-1,48,50,52,54,56,58,60,62,-1,-1,-1,-1,-1,-1,64,66,-1,-1,-1,-1,-1,-1,-1,-1,-1,-1,-1,-1,-1,-1,-1,-1,-1,-1,-1,-1,-1,-1],"split_conditions":[2.9795301E1,2.95551E1,6.9000006E0,1.901334E2,4E-1,2.3725418E2,9.6E0,1.80625E2,1.9382986E2,1.9127711E2,7.808874E-1,8E-1,1.3385249E1,-5.564168E-1,-3.0772502E0,1.6876558E2,2.2644165E0,1.24811535E1,1.9543051E2,2.5373333E0,1.6498333E0,3.3977501E0,-1.8582898E-1,7.5623336E0,-1.6156143E-1,-9.314167E-1,2.514652E-1,8.730448E-3,-1.495272E-1,1.4650656E2,9.4775003E-1,-3.36475E0,2.1707731E1,2.3602502E0,1.5785251E1,6E-1,2.2734219E1,7.9193115E-3,5.468674E-2,-4.1306414E-2,-7.601774E-3,9.5589824E-2,-9.112364E-2,1E-1,1.1908168E1,1.0057161E-1,-4.305593E-2,-9.817529E-4,1.00653924E-1,3.609675E-1,-1.4358535E-1,8.814994E-2,-3.8528833E-1,1.4442815E-1,8.260039E-1,8.627432E-1,6.341193E-2,-4.1467726E-1,1.5565798E-3,-1.253421E-1,7.779024E-1,3.9885775E-3,-3.2035988E-2,-1.3884393E-2,-6.933622E-2,1.0097728E-1,-2.202598E-2],"split_indices":[2,2,1,3,1,3,1,3,3,3,0,1,0,0,0,3,0,2,3,0,0,0,0,0,0,0,0,0,0,3,0,0,2,0,0,1,2,0,0,0,0,0,0,1,0,0,0,0,0,0,0,0,0,0,0,0,0,0,0,0,0,0,0,0,0,0,0],"split_type":[0,0,0,0,0,0,0,0,0,0,0,0,0,0,0,0,0,0,0,0,0,0,0,0,0,0,0,0,0,0,0,0,0,0,0,0,0,0,0,0,0,0,0,0,0,0,0,0,0,0,0,0,0,0,0,0,0,0,0,0,0,0,0,0,0,0,0],"sum_hessian":[1.542E3,1.492E3,5E1,1.486E3,6E0,4.2E1,8E0,5.39E2,9.47E2,4E0,2E0,1.5E1,2.7E1,5E0,3E0,4.93E2,4.6E1,2.2E1,9.25E2,2E0,2E0,2E0,1.3E1,2.6E1,1E0,2E0,3E0,1E0,2E0,4.46E2,4.7E1,1E1,3.6E1,2E0,2E1,1E1,9.15E2,1E0,1E0,1E0,1E0,1E0,1E0,2.2E1,4E0,1E0,1E0,3.7E2,7.6E1,3E0,4.4E1,1E0,9E0,2.9E1,7E0,1E0,1E0,1.3E1,7E0,7E0,3E0,7.57E2,1.58E2,7E0,1.5E1,3E0,1E0],"tree_param":{"num_deleted":"0","num_feature":"4","num_nodes":"67","size_leaf_vector":"1"}},{"base_weights":[9.360441E-3,-6.9978334E-2,2.2397012E-2,7.211908E-2,-1.1954361E-1,2.4280615E-1,1.2849135E-2,-2.502133E-1,1.5463798E-1,-8.241666E-1,-5.2535117E-2,1.4972203E0,-2.5668957E-3,-2.2530206E-1,2.359254E-2,-3.3284864E-1,-1.7304868E-3,5.565569E-1,9.204892E-2,-1.005388E0,-1.1976609E-1,1.0551372E-2,-1.8549943E-1,2.3488722E0,3.4612426E-1,7.161406E-2,-4.366886E-1,-9.2549103E-1,-1.20677054E-1,9.5699304E-1,1.8182147E-2,-9.917152E-2,-1.499868E-1,-1.2898198E-2,2.6355347E-2,1.6640743E-2,2.4670644E-1,-2.15668E-1,1.8533394E-1,-1.7588222E-1,-1.1701801E0,7.492744E-2,-3.2619354E-1,5.325139E-1,-2.7618306E-2,-3.6423242E-1,1.3262402E-1,-5.9807863E-2,9.10731E-1,1.1893913E-1,2.171495E-2,1.7250091E-1,-2.583853E-1,4.8435654E-2,-5.6328744E-1,-3.2049513E-1,-1.2991142E0,1.8736309E-1,-2.620878E-1,1.5623006E0,-1.11255184E-1,1.269377E-1,-1.033852E-3,-4.0210016E-2,6.04139E-3,1.195153E-2,-9.1624264E-5,3.8325407E-2,-3.0837072E-2,-1.7347293E-1,-1.5823152E-2,2.3283808E-1,2.9236328E-2,-1.3862549E-1,5.9478488E-2,-3.7802473E-1,-6.764431E-2,-2.8669847E-2,-1.1811725E-1,-1.0071393E-1,2.1995118E-1,3.2993674E-2,-1.823445E-2,-2.255977E-1,-2.3925869E-2,-3.1978982E-3,1.07792065E-1,2.7897652E-2,3.955908E-1,-1.9527875E-1,-2.366496E-2,-2.7462935E-1,-9.293174E-2,-4.564619E-3,-1.2515499E-1,-4.515171E-1,-1.0219285E-1,-7.798697E-2,1.6924873E-1,-9.02781E-2,1.5294085E-1,1.0406554E-1,9.6359444E-1,-1.5590381E-2,1.3043706E-1,-6.88745E-2,9.7462945E-3],"categories":[],"categories_nodes":[],"categories_segments":[],"categories_sizes":[],"default_left":[0,0,0,0,0,0,0,0,0,0,0,0,0,0,0,0,0,0,0,0,0,0,0,0,0,0,0,0,0,0,0,0,0,0,0,0,0,0,0,0,0,0,0,0,0,0,0,0,0,0,0,0,0,0,0,0,0,0,0,0,0,0,0,0,0,0,0,0,0,0,0,0,0,0,0,0,0,0,0,0,0,0,0,0,0,0,0,0,0,0,0,0,0,0,0,0,0,0,0,0,0,0,0,0,0,0,0],"id":17,"left_children":[1,3,5,7,9,11,13,15,17,19,21,23,25,27,29,31,33,35,37,39,41,43,45,47,49,51,53,55,57,59,61,63,-1,-1,65,67,-1,69,71,73,75,-1,77,79,81,83,85,-1,-1,-1,-1,87,89,-1,91,93,95,97,99,101,-1,103,105,-1,-1,-1,-1,-1,-1,-1,-1,-1,-1,-1,-1,-1,-1,-1,-1,-1,-1,-1,-1,-1,-1,-1,-1,-1,-1,-1,-1,-1,-1,-1,-1,-1,-1,-1,-1,-1,-1,-1,-1,-1,-1,-1,-1],"loss_changes":[1.5975008E0,1.5440167E0,2.7873664E0,1.5548078E0,7.605649E0,1.6932808E1,3.2597966E0,2.4582553E-1,1.105933E0,1.6667233E0,1.2518067E0,8.009998E0,1.5448405E0,3.9174645E0,6.133577E0,3.0186105E-1,5.7688016E-3,8.473667E-1,1.216891E0,1.297843E0,3.8658923E-1,2.0468676E0,2.777545E0,9.357082E0,4.0202677E-2,1.4095682E0,6.210114E-1,1.1659236E0,2.1835546E0,6.205657E0,2.5330255E0,2.3495916E-2,0E0,0E0,1.0905752E-3,5.2941736E-2,0E0,5.602237E-1,1.5857582E0,4.1285664E-1,4.8025036E-1,0E0,9.096533E-3,1.4656439E0,4.4474825E-1,3.3596292E0,5.884692E-1,0E0,0E0,0E0,0E0,2.7934651E0,6.5327704E-1,0E0,2.5206673E-1,1.11720055E-1,2.7687454E-1,2.843454E0,1.1727202E0,8.911049E0,0E0,1.0046527E1,7.906223E0,0E0,0E0,0E0,0E0,0E0,0E0,0E0,0E0,0E0,0E0,0E0,0E0,0E0,0E0,0E0,0E0,0E0,0E0,0E0,0E0,0E0,0E0,0E0,0E0,0E0,0E0,0E0,0E0,0E0,0E0,0E0,0E0,0E0,0E0,0E0,0E0,0E0,0E0,0E0,0E0,0E0,0E0,0E0,0E0],"parents":[2147483647,0,0,1,1,2,2,3,3,4,4,5,5,6,6,7,7,8,8,9,9,10,10,11,11,12,12,13,13,14,14,15,15,16,16,17,17,18,18,19,19,20,20,21,21,22,22,23,23,24,24,25,25,26,26,27,27,28,28,29,29,30,30,31,31,34,34,35,35,37,37,38,38,39,39,40,40,42,42,43,43,44,44,45,45,46,46,51,51,52,52,54,54,55,55,56,56,57,57,58,58,59,59,61,61,62,62],"right_children":[2,4,6,8,10,12,14,16,18,20,22,24,26,28,30,32,34,36,38,40,42,44,46,48,50,52,54,56,58,60,62,64,-1,-1,66,68,-1,70,72,74,76,-1,78,80,82,84,86,-1,-1,-1,-1,88,90,-1,92,94,96,98,100,102,-1,104,106,-1,-1,-1,-1,-1,-1,-1,-1,-1,-1,-1,-1,-1,-1,-1,-1,-1,-1,-1,-1,-1,-1,-1,-1,-1,-1,-1,-1,-1,-1,-1,-1,-1,-1,-1,-1,-1,-1,-1,-1,-1,-1,-1,-1],"split_conditions":[-9.314167E-1,9.768213E1,3.7333343E-2,-5.231416E0,1.9840375E2,1.3004922E1,7.9358333E-1,2.2539564E1,1.0787993E1,1.9376562E1,-2.4022498E0,1.9543051E2,6.7000003E0,1.0495713E1,9.4775003E-1,2E-1,1.7000003E0,1.0239453E1,1.2641076E1,1.2606051E2,2E-1,2.4179582E2,3.1005508E2,2.2038551E1,3.3472748E2,2.2608458E1,2.0291357E1,9.585739E0,1.6981165E1,1.9000002E0,2.983167E0,1.4986553E1,-1.499868E-1,-1.2898198E-2,-6.8314166E0,-2.18975E0,2.4670644E-1,1.0840266E1,1.4154915E1,-4.0522504E0,-1.1522499E0,7.492744E-2,-3.5189164E0,-7.5043335E0,-8.495997E0,1.6171976E1,8.000001E-1,-5.9807863E-2,9.10731E-1,1.1893913E-1,2.171495E-2,2.1485697E1,1.9840375E2,4.8435654E-2,6.8E0,5.3524995E-1,6.3733345E-1,1.4118243E1,3.5728977E1,8E-1,-1.11255184E-1,2.2644165E0,4.6060834E0,-4.0210016E-2,6.04139E-3,1.195153E-2,-9.1624264E-5,3.8325407E-2,-3.0837072E-2,-1.7347293E-1,-1.5823152E-2,2.3283808E-1,2.9236328E-2,-1.3862549E-1,5.9478488E-2,-3.7802473E-1,-6.764431E-2,-2.8669847E-2,-1.1811725E-1,-1.0071393E-1,2.1995118E-1,3.2993674E-2,-1.823445E-2,-2.255977E-1,-2.3925869E-2,-3.1978982E-3,1.07792065E-1,2.7897652E-2,3.955908E-1,-1.9527875E-1,-2.366496E-2,-2.7462935E-1,-9.293174E-2,-4.564619E-3,-1.2515499E-1,-4.515171E-1,-1.0219285E-1,-7.798697E-2,1.6924873E-1,-9.02781E-2,1.5294085E-1,1.0406554E-1,9.6359444E-1,-1.5590381E-2,1.3043706E-1,-6.88745E-2,9.7462945E-3],"split_indices":[0,3,0,0,3,2,0,2,2,2,0,3,1,2,0,1,1,2,2,3,1,3,3,3,3,2,2,2,2,1,0,2,0,0,0,0,0,3,2,0,0,0,0,0,0,2,1,0,0,0,0,2,3,0,1,0,0,2,2,1,0,0,0,0,0,0,0,0,0,0,0,0,0,0,0,0,0,0,0,0,0,0,0,0,0,0,0,0,0,0,0,0,0,0,0,0,0,0,0,0,0,0,0,0,0,0,0],"split_type":[0,0,0,0,0,0,0,0,0,0,0,0,0,0,0,0,0,0,0,0,0,0,0,0,0,0,0,0,0,0,0,0,0,0,0,0,0,0,0,0,0,0,0,0,0,0,0,0,0,0,0,0,0,0,0,0,0,0,0,0,0,0,0,0,0,0,0,0,0,0,0,0,0,0,0,0,0,0,0,0,0,0,0,0,0,0,0,0,0,0,0,0,0,0,0,0,0,0,0,0,0,0,0,0,0,0,0],"sum_hessian":[1.542E3,2.17E2,1.325E3,5.6E1,1.61E2,5.4E1,1.271E3,1.1E1,4.5E1,1.3E1,1.48E2,8E0,4.6E1,5.4E1,1.217E3,8E0,3E0,5E0,4E1,1E1,3E0,1.01E2,4.7E1,4E0,4E0,4E1,6E0,6E0,4.8E1,6E0,1.211E3,4E0,4E0,1E0,2E0,2E0,3E0,9E0,3.1E1,2E0,8E0,1E0,2E0,6E0,9.5E1,3E1,1.7E1,1E0,3E0,3E0,1E0,3.1E1,9E0,1E0,5E0,3E0,3E0,1.5E1,3.3E1,4E0,2E0,1.81E2,1.03E3,3E0,1E0,1E0,1E0,1E0,1E0,2E0,7E0,3E0,2.8E1,1E0,1E0,7E0,1E0,1E0,1E0,1E0,5E0,1.8E1,7.7E1,1.2E1,1.8E1,1.1E1,6E0,3E1,1E0,2E0,7E0,1E0,4E0,1E0,2E0,2E0,1E0,7E0,8E0,3.2E1,1E0,3E0,1E0,1.15E2,6.6E1,1.31E2,8.99E2],"tree_param":{"num_deleted":"0","num_feature":"4","num_nodes":"107","size_leaf_vector":"1"}},{"base_weights":[7.1315668E-3,-4.9407955E-4,1.3024887E-1,7.0098178E-3,-2.411192E-1,1.0570223E0,-8.441866E-2,1.9226265E-3,7.195331E-1,2.3217861E-1,-4.4708857E-1,8.5265267E-1,6.295236E-1,-3.8619986E-1,1.1864477E-1,4.1441664E-2,-6.3771114E-2,9.734821E-1,7.838341E-2,-1.8087012E-1,6.2650025E-1,-1.0894982E0,-1.7627227E-1,-8.074127E-1,9.1269934E-1,-2.3087896E-1,-9.6900356E-1,2.966595E-1,-1.6485842E-1,3.9969482E-3,4.2447865E-1,1.1490797E-1,-9.460044E-2,4.1270256E-1,-3.8942552E-1,-1.5753302E-1,1.1754446E0,-4.231751E-1,-5.5051297E-1,-4.9454665E-1,-6.118063E-3,-3.0008233E-1,-6.3253395E-2,-1.1150076E-1,1.566762E0,-3.128506E-1,2.776848E-1,-1.1790909E0,1.2214995E-2,9.826361E-1,2.0609838E-1,-4.628821E-1,6.68732E-2,8.245164E-3,-1.9311419E-1,1.1204337E0,2.9024517E-2,1.0691317E-2,6.2543553E-1,-1.8169835E-1,-2.26756E-2,1.3408632E-2,3.033448E-1,2.890522E-2,-1.7596021E-1,4.4258216E-1,-4.855521E-2,4.0187716E-2,-2.2653623E-1,-1.6568047E-1,-1.3574374E-2,2.602323E-1,-3.665542E-2,7.23612E-2,-1.6338207E-1,7.7305907E-1,1.3359852E-1,-1.24708615E-1,-4.4360206E-2,8.496684E-3,1.5386586E-1,-3.904004E-1,-1.0351739E-1,2.0762265E-3,4.4011003E-1,-2.1427463E-1,9.37663E-2,5.2646387E-2,-2.1147604E-1,8.077597E-2,-4.399571E-2],"categories":[],"categories_nodes":[],"categories_segments":[],"categories_sizes":[],"default_left":[0,0,0,0,0,0,0,0,0,0,0,0,0,0,0,0,0,0,0,0,0,0,0,0,0,0,0,0,0,0,0,0,0,0,0,0,0,0,0,0,0,0,0,0,0,0,0,0,0,0,0,0,0,0,0,0,0,0,0,0,0,0,0,0,0,0,0,0,0,0,0,0,0,0,0,0,0,0,0,0,0,0,0,0,0,0,0,0,0,0,0],"id":18,"left_children":[1,3,5,7,9,11,13,15,17,19,21,-1,23,25,27,29,31,-1,33,-1,35,37,39,41,43,45,47,49,51,53,55,57,59,61,-1,63,65,-1,67,69,71,-1,-1,73,75,77,79,81,-1,83,85,87,89,-1,-1,-1,-1,-1,-1,-1,-1,-1,-1,-1,-1,-1,-1,-1,-1,-1,-1,-1,-1,-1,-1,-1,-1,-1,-1,-1,-1,-1,-1,-1,-1,-1,-1,-1,-1,-1,-1],"loss_changes":[1.4487084E0,2.6270707E0,1.7994568E1,5.1131277E0,4.393138E0,1.1184347E1,4.580594E0,3.6424496E0,1.5937288E1,4.987773E0,5.201176E0,0E0,6.840508E0,2.4919243E0,2.3199553E0,1.2562519E1,2.9138792E0,0E0,4.677341E0,0E0,4.489078E0,7.809973E-1,1.2425561E0,1.3426292E-1,8.883279E0,1.129069E0,1.3207865E0,1.5369189E0,1.2740617E0,1.2172669E1,8.425974E1,1.2105609E1,4.3272643E0,1.7166678E0,0E0,6.010949E-1,2.644535E0,0E0,8.0139685E-1,1.8248498E-1,1.7282453E0,0E0,0E0,1.0479128E0,7.914543E0,3.1182098E-1,2.2007555E-1,6.074047E-2,0E0,1.4077485E0,2.770629E0,1.3597836E0,5.1483303E-1,0E0,0E0,0E0,0E0,0E0,0E0,0E0,0E0,0E0,0E0,0E0,0E0,0E0,0E0,0E0,0E0,0E0,0E0,0E0,0E0,0E0,0E0,0E0,0E0,0E0,0E0,0E0,0E0,0E0,0E0,0E0,0E0,0E0,0E0,0E0,0E0,0E0,0E0],"parents":[2147483647,0,0,1,1,2,2,3,3,4,4,5,5,6,6,7,7,8,8,9,9,10,10,12,12,13,13,14,14,15,15,16,16,18,18,20,20,21,21,22,22,23,23,24,24,25,25,26,26,27,27,28,28,29,29,30,30,31,31,32,32,33,33,35,35,36,36,38,38,39,39,40,40,43,43,44,44,45,45,46,46,47,47,49,49,50,50,51,51,52,52],"right_children":[2,4,6,8,10,12,14,16,18,20,22,-1,24,26,28,30,32,-1,34,-1,36,38,40,42,44,46,48,50,52,54,56,58,60,62,-1,64,66,-1,68,70,72,-1,-1,74,76,78,80,82,-1,84,86,88,90,-1,-1,-1,-1,-1,-1,-1,-1,-1,-1,-1,-1,-1,-1,-1,-1,-1,-1,-1,-1,-1,-1,-1,-1,-1,-1,-1,-1,-1,-1,-1,-1,-1,-1,-1,-1,-1,-1],"split_conditions":[8.8E0,6.7999997E0,9.7E0,6.3E0,1.4612631E2,1.04132835E2,8.347749E0,9.81025E0,6.4999986E0,4.3264347E1,1.9441222E2,8.5265267E-1,1.2181625E1,6.7915006E0,1.8782204E1,8.079E0,1.0128479E2,9.734821E-1,2.6525429E1,-1.8087012E-1,7.499999E0,5.5019164E0,1.6363178E1,1.1068584E1,2.0748334E0,3.14155E2,1.9319628E1,6.3497482E1,2.2127556E1,7.508167E0,8.301917E0,9.768213E1,1.1920013E2,1.4208165E1,-3.8942552E-1,1.6012333E1,8.1E0,-4.231751E-1,1.5894662E2,1.5235249E1,1.6946787E1,-3.0008233E-1,-6.3253395E-2,2.498333E-1,1.9382986E2,1.3599999E1,2.5373333E0,1.5599999E1,1.2214995E-2,1.4039416E1,8.789841E1,1.05789995E1,1.639867E2,8.245164E-3,-1.9311419E-1,1.1204337E0,2.9024517E-2,1.0691317E-2,6.2543553E-1,-1.8169835E-1,-2.26756E-2,1.3408632E-2,3.033448E-1,2.890522E-2,-1.7596021E-1,4.4258216E-1,-4.855521E-2,4.0187716E-2,-2.2653623E-1,-1.6568047E-1,-1.3574374E-2,2.602323E-1,-3.665542E-2,7.23612E-2,-1.6338207E-1,7.7305907E-1,1.3359852E-1,-1.24708615E-1,-4.4360206E-2,8.496684E-3,1.5386586E-1,-3.904004E-1,